svm_type nu_svc
kernel_type rbf
gamma 0.2
nr_class 2
total_sv 1289
rho 27.88546137350048
label 1 2
probA -0.8658876133020649
probB -0.25221959678519773
nr_sv 698 591
SV
2076.404214205183 2:0.2 3:0.4 4:0.3333333333333333 5:0.06666666666666667 10:0.8723404255319149 11:0.10638297872340426 12:0.02127659574468085 19:4.0 
329.8832992490333 1:0.26666666666666666 2:0.2 3:0.2 4:0.26666666666666666 5:0.06666666666666667 10:0.3829787234042553 11:0.1276595744680851 12:0.14893617021276595 13:0.3191489361702128 15:0.02127659574468085 19:4.0 
2569.8198961649077 1:0.9 5:0.025 6:0.05 8:0.025 10:0.8969072164948454 14:0.061855670103092786 15:0.010309278350515464 16:0.010309278350515464 18:0.020618556701030927 19:5.0 
2569.8198961649077 1:0.4375 2:0.0625 3:0.0625 4:0.25 6:0.125 8:0.0625 10:0.8142857142857143 11:0.07142857142857142 12:0.05714285714285714 13:0.014285714285714285 15:0.02857142857142857 16:0.014285714285714285 19:6.0 
2436.243382280546 1:0.2 2:0.2 4:0.4 6:0.2 10:0.5333333333333333 13:0.4666666666666667 19:4.0 
2569.8198961649077 2:0.16666666666666666 3:0.16666666666666666 4:0.5833333333333334 6:0.08333333333333333 10:0.6190476190476191 11:0.1111111111111111 12:0.031746031746031744 13:0.12698412698412698 14:0.031746031746031744 17:0.015873015873015872 18:0.06349206349206349 19:6.0 
2569.8198961649077 1:0.1 2:0.225 3:0.225 4:0.4 6:0.025 8:0.025 10:0.5567010309278351 11:0.15463917525773196 12:0.09278350515463918 13:0.13402061855670103 15:0.05154639175257732 17:0.010309278350515464 19:5.0 
2569.8198961649077 1:0.8333333333333334 6:0.16666666666666666 10:0.8947368421052632 11:0.05263157894736842 13:0.05263157894736842 19:4.0 
2465.8230431602387 1:0.2 2:0.13333333333333333 3:0.13333333333333333 4:0.4666666666666667 6:0.06666666666666667 10:0.2765957446808511 11:0.14893617021276595 12:0.10638297872340426 13:0.3829787234042553 15:0.0425531914893617 17:0.02127659574468085 18:0.02127659574468085 19:4.0 
2569.8198961649077 1:0.1 4:0.05 6:0.4 7:0.15 8:0.25 9:0.05 10:0.527027027027027 13:0.10810810810810811 15:0.10810810810810811 16:0.08108108108108109 17:0.08108108108108109 18:0.0945945945945946 19:6.0 
1288.8665868252613 1:0.08333333333333333 3:0.4166666666666667 4:0.4166666666666667 6:0.08333333333333333 10:0.5147058823529411 11:0.11764705882352941 12:0.029411764705882353 13:0.16176470588235295 15:0.04411764705882353 16:0.014705882352941176 18:0.11764705882352941 19:7.0 
942.3152959675074 4:0.2 6:0.2 8:0.4 9:0.2 10:0.47619047619047616 13:0.047619047619047616 16:0.09523809523809523 17:0.3333333333333333 18:0.047619047619047616 19:3.0 
2569.8198961649077 1:0.23076923076923078 6:0.15384615384615385 7:0.46153846153846156 8:0.07692307692307693 9:0.07692307692307693 10:0.2542372881355932 14:0.01694915254237288 15:0.06779661016949153 16:0.0847457627118644 17:0.1694915254237288 18:0.4067796610169492 19:3.0 
824.1772250694346 1:0.8 6:0.2 10:0.8888888888888888 13:0.1111111111111111 19:4.0 
2569.8198961649077 1:0.8333333333333334 2:0.125 6:0.041666666666666664 10:0.7787610619469026 11:0.061946902654867256 12:0.07079646017699115 13:0.061946902654867256 15:0.017699115044247787 17:0.008849557522123894 19:8.0 
212.4433284991665 1:0.7 2:0.1 3:0.1 6:0.1 10:0.3181818181818182 13:0.5 18:0.18181818181818182 19:2.0 
311.3046716630964 1:0.7692307692307693 6:0.15384615384615385 7:0.07692307692307693 10:0.967741935483871 11:0.010752688172043012 12:0.010752688172043012 17:0.010752688172043012 19:9.0 
2348.8258584617074 1:0.5454545454545454 2:0.18181818181818182 4:0.18181818181818182 6:0.09090909090909091 10:0.6666666666666666 11:0.020833333333333332 12:0.0625 13:0.20833333333333334 15:0.020833333333333332 17:0.020833333333333332 19:7.0 
24.579146728808983 1:0.2222222222222222 6:0.2222222222222222 8:0.5555555555555556 10:0.2571428571428571 15:0.17142857142857143 16:0.05714285714285714 17:0.37142857142857144 18:0.14285714285714285 19:4.0 
10.369217199951652 3:0.3333333333333333 4:0.5555555555555556 7:0.1111111111111111 10:0.17391304347826086 11:0.043478260869565216 13:0.2608695652173913 17:0.13043478260869565 18:0.391304347826087 19:6.0 
2569.8198961649077 1:0.9285714285714286 6:0.07142857142857142 10:0.9864864864864865 15:0.013513513513513514 19:7.0 
2569.8198961649077 1:0.9285714285714286 6:0.07142857142857142 10:0.49295774647887325 11:0.04225352112676056 12:0.07042253521126761 13:0.352112676056338 16:0.014084507042253521 18:0.028169014084507043 19:8.0 
186.00028394610388 1:0.25 4:0.25 6:0.5 10:0.6326530612244898 11:0.061224489795918366 12:0.061224489795918366 13:0.1836734693877551 15:0.02040816326530612 17:0.04081632653061224 19:6.0 
2569.8198961649077 1:0.8695652173913043 2:0.06521739130434782 3:0.021739130434782608 6:0.043478260869565216 10:0.32051282051282054 11:0.14102564102564102 12:0.07692307692307693 13:0.41025641025641024 14:0.01282051282051282 15:0.01282051282051282 18:0.02564102564102564 19:2.0 
1323.8561279885796 3:0.16666666666666666 4:0.5833333333333334 6:0.08333333333333333 9:0.16666666666666666 10:0.047619047619047616 11:0.031746031746031744 12:0.047619047619047616 13:0.4126984126984127 15:0.047619047619047616 16:0.015873015873015872 18:0.3968253968253968 19:6.0 
298.526233835335 6:0.16666666666666666 7:0.16666666666666666 8:0.5 9:0.16666666666666666 10:0.9473684210526315 15:0.05263157894736842 19:4.0 
747.9407467970725 6:0.5 7:0.5 10:0.5 11:0.07142857142857142 12:0.03571428571428571 13:0.25 18:0.14285714285714285 19:4.0 
2569.8198961649077 1:0.9230769230769231 6:0.07692307692307693 10:0.9893617021276596 16:0.010638297872340425 19:9.0 
1370.324963450173 1:0.5 2:0.25 3:0.16666666666666666 6:0.08333333333333333 10:0.3669064748201439 11:0.18705035971223022 12:0.1079136690647482 13:0.28776978417266186 14:0.014388489208633094 15:0.02158273381294964 17:0.014388489208633094 19:8.0 
529.9470783766748 2:0.06666666666666667 3:0.06666666666666667 4:0.3333333333333333 6:0.06666666666666667 8:0.4 9:0.06666666666666667 10:0.2127659574468085 11:0.02127659574468085 13:0.425531914893617 15:0.06382978723404255 16:0.02127659574468085 17:0.06382978723404255 18:0.19148936170212766 19:4.0 
2569.8198961649077 1:0.5 6:0.5 10:0.5517241379310345 11:0.06896551724137931 12:0.10344827586206896 13:0.1724137931034483 16:0.034482758620689655 17:0.06896551724137931 19:5.0 
64.2491700054591 2:0.06666666666666667 4:0.26666666666666666 6:0.06666666666666667 7:0.06666666666666667 8:0.13333333333333333 9:0.4 10:0.14516129032258066 11:0.11290322580645161 12:0.06451612903225806 13:0.14516129032258066 15:0.03225806451612903 16:0.016129032258064516 17:0.04838709677419355 18:0.43548387096774194 19:4.0 
1802.9414492656801 1:0.9444444444444444 4:0.027777777777777776 6:0.027777777777777776 10:0.4225352112676056 11:0.19718309859154928 12:0.09859154929577464 13:0.22535211267605634 15:0.014084507042253521 18:0.04225352112676056 19:9.0 
2569.8198961649077 2:0.14814814814814814 3:0.1111111111111111 4:0.14814814814814814 7:0.018518518518518517 8:0.07407407407407407 9:0.5 10:0.05785123966942149 11:0.06611570247933884 12:0.04132231404958678 13:0.1487603305785124 15:0.01652892561983471 16:0.01652892561983471 17:0.049586776859504134 18:0.6033057851239669 19:2.0 
2569.8198961649077 1:0.8709677419354839 2:0.0967741935483871 6:0.03225806451612903 10:0.9108910891089109 11:0.009900990099009901 12:0.0297029702970297 13:0.0297029702970297 15:0.009900990099009901 16:0.009900990099009901 19:6.0 
632.4407333659515 6:1.0 10:0.6 11:0.2 13:0.2 19:5.0 
1556.3341873348056 1:0.14285714285714285 2:0.5714285714285714 3:0.14285714285714285 6:0.14285714285714285 10:0.625 12:0.041666666666666664 13:0.25 15:0.08333333333333333 19:5.0 
2203.9893397642027 1:0.375 2:0.03125 3:0.0625 4:0.40625 7:0.03125 8:0.03125 9:0.0625 10:0.3103448275862069 11:0.1724137931034483 13:0.2413793103448276 15:0.10344827586206896 18:0.1724137931034483 19:6.0 
217.75436932361723 1:0.6 3:0.2 6:0.2 10:0.28 12:0.05333333333333334 13:0.22666666666666666 15:0.02666666666666667 17:0.05333333333333334 18:0.36 19:8.0 
2561.7431573142326 4:0.1875 6:0.03125 9:0.78125 12:0.00980392156862745 13:0.37254901960784315 15:0.029411764705882353 16:0.029411764705882353 18:0.5588235294117647 19:7.0 
2569.8198961649077 1:0.42857142857142855 2:0.19480519480519481 3:0.05194805194805195 4:0.2727272727272727 7:0.012987012987012988 8:0.012987012987012988 9:0.025974025974025976 10:0.7516778523489933 11:0.013422818791946308 12:0.013422818791946308 13:0.08053691275167785 14:0.006711409395973154 15:0.03355704697986577 16:0.020134228187919462 17:0.013422818791946308 18:0.06711409395973154 19:4.0 
528.8674747693311 2:0.08695652173913043 3:0.1956521739130435 4:0.5 6:0.021739130434782608 7:0.021739130434782608 9:0.17391304347826086 10:0.11688311688311688 11:0.12987012987012986 12:0.16883116883116883 13:0.5844155844155844 19:2.0 
113.02092531187208 2:0.25 3:0.25 4:0.25 6:0.25 16:1.0 19:1.0 
2569.8198961649077 1:0.5625 2:0.25 3:0.125 6:0.0625 10:0.7846153846153846 11:0.015384615384615385 12:0.046153846153846156 13:0.07692307692307693 15:0.046153846153846156 16:0.015384615384615385 17:0.015384615384615385 19:5.0 
2569.8198961649077 2:0.058823529411764705 3:0.29411764705882354 4:0.35294117647058826 6:0.058823529411764705 9:0.23529411764705882 10:0.9591836734693877 11:0.027210884353741496 12:0.006802721088435374 15:0.006802721088435374 19:4.0 
2569.8198961649077 1:0.44155844155844154 2:0.18181818181818182 3:0.05194805194805195 4:0.2857142857142857 6:0.012987012987012988 7:0.012987012987012988 9:0.012987012987012988 10:0.7516778523489933 11:0.013422818791946308 12:0.020134228187919462 13:0.0738255033557047 14:0.006711409395973154 15:0.03355704697986577 16:0.020134228187919462 17:0.013422818791946308 18:0.06711409395973154 19:4.0 
2569.8198961649077 4:0.37037037037037035 6:0.037037037037037035 7:0.1111111111111111 9:0.48148148148148145 10:0.6875 11:0.125 12:0.0625 13:0.125 19:3.0 
1518.3488293467285 1:0.375 2:0.125 3:0.125 4:0.125 6:0.125 8:0.125 10:0.6511627906976745 12:0.11627906976744186 13:0.13953488372093023 15:0.06976744186046512 16:0.023255813953488372 19:6.0 
1134.87913974536 1:0.25 2:0.3333333333333333 3:0.16666666666666666 4:0.16666666666666666 7:0.08333333333333333 10:0.7058823529411765 11:0.08823529411764706 12:0.058823529411764705 13:0.029411764705882353 15:0.029411764705882353 16:0.029411764705882353 17:0.04411764705882353 18:0.014705882352941176 19:7.0 
1012.6082631333368 4:0.7142857142857143 6:0.14285714285714285 9:0.14285714285714285 10:0.4166666666666667 11:0.041666666666666664 12:0.041666666666666664 13:0.08333333333333333 15:0.041666666666666664 16:0.08333333333333333 17:0.125 18:0.16666666666666666 19:5.0 
205.62656281749966 3:0.29411764705882354 4:0.35294117647058826 6:0.11764705882352941 9:0.23529411764705882 10:0.9523809523809523 11:0.034013605442176874 12:0.006802721088435374 15:0.006802721088435374 19:4.0 
2008.4296141728928 1:0.875 3:0.0625 5:0.0625 10:1.0 19:6.0 
1852.439220200903 3:0.0625 4:0.5 6:0.25 8:0.0625 9:0.125 10:0.36923076923076925 13:0.13846153846153847 15:0.24615384615384617 16:0.1076923076923077 17:0.07692307692307693 18:0.06153846153846154 19:5.0 
2569.8198961649077 1:0.5 2:0.35714285714285715 3:0.07142857142857142 6:0.07142857142857142 10:0.6235294117647059 11:0.08823529411764706 12:0.07058823529411765 13:0.19411764705882353 16:0.0058823529411764705 18:0.01764705882352941 19:2.0 
67.94372386584017 1:0.25 2:0.375 4:0.125 6:0.125 8:0.125 10:0.1590909090909091 11:0.20454545454545456 12:0.06818181818181818 13:0.3409090909090909 17:0.06818181818181818 18:0.1590909090909091 19:3.0 
668.5492056113393 3:0.26666666666666666 4:0.6666666666666666 6:0.06666666666666667 10:0.5882352941176471 11:0.29411764705882354 13:0.11764705882352941 19:3.0 
900.2007564944099 1:0.5 4:0.08333333333333333 6:0.3333333333333333 7:0.08333333333333333 10:0.8395061728395061 12:0.024691358024691357 13:0.012345679012345678 15:0.08641975308641975 16:0.024691358024691357 17:0.012345679012345678 19:6.0 
2117.5926401048796 1:0.6818181818181818 2:0.18181818181818182 3:0.045454545454545456 4:0.045454545454545456 7:0.045454545454545456 10:0.9826086956521739 12:0.008695652173913044 15:0.008695652173913044 19:7.0 
1460.6491053406846 1:0.5454545454545454 2:0.045454545454545456 3:0.13636363636363635 4:0.22727272727272727 6:0.045454545454545456 10:0.8695652173913043 11:0.08695652173913043 12:0.02608695652173913 15:0.017391304347826087 19:7.0 
2438.7657285149244 1:0.38461538461538464 2:0.3076923076923077 3:0.23076923076923078 6:0.07692307692307693 10:0.423728813559322 11:0.03389830508474576 12:0.01694915254237288 13:0.3389830508474576 15:0.1016949152542373 16:0.01694915254237288 18:0.06779661016949153 19:3.0 
739.9548303930749 6:0.25 8:0.75 10:0.5416666666666666 12:0.041666666666666664 13:0.16666666666666666 15:0.125 16:0.041666666666666664 18:0.08333333333333333 19:7.0 
837.504222163658 6:0.5 7:0.5 10:0.5384615384615384 11:0.07692307692307693 12:0.23076923076923078 13:0.15384615384615385 19:3.0 
2569.8198961649077 1:0.7777777777777778 2:0.1111111111111111 4:0.05555555555555555 7:0.05555555555555555 10:0.948051948051948 11:0.025974025974025976 12:0.012987012987012988 15:0.012987012987012988 19:10.0 
1847.812397911133 1:0.6923076923076923 2:0.07692307692307693 3:0.07692307692307693 4:0.07692307692307693 6:0.07692307692307693 10:0.8095238095238095 11:0.09523809523809523 12:0.09523809523809523 19:6.0 
1784.8364462714242 4:0.8888888888888888 7:0.1111111111111111 11:0.061224489795918366 12:0.08163265306122448 13:0.3673469387755102 15:0.02040816326530612 16:0.02040816326530612 18:0.4489795918367347 19:5.0 
2569.8198961649077 1:0.8571428571428571 2:0.09523809523809523 5:0.047619047619047616 10:0.9512195121951219 11:0.024390243902439025 14:0.012195121951219513 15:0.012195121951219513 19:6.0 
1269.6830499820771 1:0.391304347826087 2:0.1956521739130435 3:0.08695652173913043 4:0.2391304347826087 7:0.021739130434782608 8:0.043478260869565216 9:0.021739130434782608 10:0.08974358974358974 11:0.0641025641025641 12:0.05128205128205128 13:0.2948717948717949 17:0.01282051282051282 18:0.48717948717948717 19:2.0 
954.767475977345 1:0.8571428571428571 6:0.14285714285714285 10:0.5617977528089888 11:0.10112359550561797 12:0.14606741573033707 13:0.14606741573033707 14:0.011235955056179775 15:0.02247191011235955 18:0.011235955056179775 19:8.0 
2569.8198961649077 1:0.9354838709677419 2:0.03225806451612903 5:0.03225806451612903 10:0.9405940594059405 11:0.039603960396039604 12:0.019801980198019802 19:6.0 
1896.0133612956838 1:0.375 2:0.0625 3:0.0625 4:0.4375 7:0.03125 9:0.03125 10:0.3448275862068966 11:0.13793103448275862 12:0.06896551724137931 13:0.1724137931034483 15:0.10344827586206896 18:0.1724137931034483 19:6.0 
581.6919575442197 1:0.5 3:0.25 6:0.25 10:0.4868421052631579 11:0.17105263157894737 12:0.07894736842105263 13:0.17105263157894737 14:0.02631578947368421 15:0.013157894736842105 16:0.013157894736842105 17:0.013157894736842105 18:0.02631578947368421 19:7.0 
2569.8198961649077 1:0.9 2:0.05 6:0.05 10:0.9606299212598425 13:0.007874015748031496 15:0.007874015748031496 16:0.023622047244094488 19:10.0 
2551.2446489199297 1:0.4444444444444444 2:0.3333333333333333 3:0.1111111111111111 6:0.1111111111111111 10:0.581081081081081 11:0.05405405405405406 12:0.0945945945945946 13:0.21621621621621623 16:0.013513513513513514 17:0.04054054054054054 19:10.0 
2569.8198961649077 1:0.36363636363636365 2:0.045454545454545456 6:0.13636363636363635 7:0.13636363636363635 8:0.13636363636363635 9:0.18181818181818182 10:0.5739130434782609 11:0.034782608695652174 12:0.034782608695652174 13:0.10434782608695652 15:0.08695652173913043 16:0.034782608695652174 17:0.0782608695652174 18:0.05217391304347826 19:7.0 
1291.6585083929322 1:0.4 2:0.2 3:0.2 6:0.2 10:0.23809523809523808 11:0.047619047619047616 13:0.047619047619047616 17:0.09523809523809523 18:0.5714285714285714 19:3.0 
2569.8198961649077 1:0.28205128205128205 2:0.28205128205128205 3:0.10256410256410256 4:0.28205128205128205 7:0.02564102564102564 9:0.02564102564102564 
2569.8198961649077 2:0.043478260869565216 3:0.21739130434782608 4:0.45652173913043476 6:0.021739130434782608 7:0.021739130434782608 8:0.021739130434782608 9:0.21739130434782608 10:0.05194805194805195 11:0.14285714285714285 12:0.18181818181818182 13:0.6233766233766234 19:2.0 
1465.9020400109519 6:1.0 10:0.35 11:0.1 12:0.05 13:0.3 15:0.15 17:0.05 19:5.0 
2569.8198961649077 6:0.03125 8:0.09375 9:0.875 12:0.034482758620689655 13:0.10344827586206896 16:0.034482758620689655 17:0.034482758620689655 18:0.7931034482758621 19:6.0 
174.9107268055154 4:0.25 6:0.25 8:0.5 10:0.5833333333333334 12:0.08333333333333333 13:0.16666666666666666 15:0.08333333333333333 18:0.08333333333333333 19:7.0 
932.6841131622198 4:0.25 7:0.25 8:0.5 10:0.6190476190476191 11:0.047619047619047616 12:0.047619047619047616 13:0.09523809523809523 15:0.09523809523809523 17:0.047619047619047616 18:0.047619047619047616 19:4.0 
217.23299612828546 1:0.375 2:0.125 3:0.125 6:0.125 8:0.25 10:0.6511627906976745 12:0.11627906976744186 13:0.13953488372093023 15:0.06976744186046512 17:0.023255813953488372 19:6.0 
2569.8198961649077 1:0.9310344827586207 2:0.034482758620689655 5:0.034482758620689655 10:0.925 11:0.05 16:0.025 19:8.0 
2304.8911220434807 6:1.0 10:0.0625 11:0.09375 12:0.0625 13:0.28125 15:0.03125 18:0.46875 19:1.0 
1918.8860519461734 6:0.3333333333333333 7:0.3333333333333333 8:0.3333333333333333 10:0.6756756756756757 11:0.05405405405405406 12:0.05405405405405406 13:0.08108108108108109 15:0.02702702702702703 16:0.02702702702702703 17:0.02702702702702703 18:0.05405405405405406 19:4.0 
430.35841128980593 1:0.14285714285714285 5:0.5714285714285714 6:0.14285714285714285 8:0.14285714285714285 10:0.5625 11:0.0625 12:0.1875 13:0.125 14:0.0625 19:6.0 
1093.6783190587382 1:0.9333333333333333 6:0.06666666666666667 10:0.7073170731707317 11:0.04878048780487805 12:0.06097560975609756 13:0.08536585365853659 14:0.04878048780487805 15:0.036585365853658534 16:0.012195121951219513 19:8.0 
602.3581070369487 1:0.4166666666666667 2:0.3333333333333333 3:0.08333333333333333 7:0.08333333333333333 8:0.08333333333333333 10:0.532258064516129 11:0.016129032258064516 12:0.06451612903225806 13:0.25806451612903225 15:0.08064516129032258 16:0.03225806451612903 17:0.016129032258064516 19:9.0 
1089.861473653982 4:0.5 6:0.5 10:0.6923076923076923 11:0.05128205128205128 12:0.02564102564102564 13:0.15384615384615385 15:0.05128205128205128 17:0.02564102564102564 19:5.0 
2043.2594035299437 1:0.375 2:0.1875 3:0.0625 4:0.25 6:0.125 10:0.9 11:0.02857142857142857 12:0.02857142857142857 15:0.02857142857142857 16:0.014285714285714285 19:6.0 
351.0191621077258 1:0.7222222222222222 2:0.05555555555555555 3:0.05555555555555555 4:0.08333333333333333 5:0.05555555555555555 6:0.027777777777777776 10:0.9090909090909091 11:0.05194805194805195 12:0.025974025974025976 14:0.012987012987012988 19:10.0 
2087.199448944801 1:0.2 3:0.1 4:0.6 7:0.1 10:0.3333333333333333 11:0.07407407407407407 12:0.1111111111111111 13:0.18518518518518517 15:0.037037037037037035 16:0.037037037037037035 17:0.18518518518518517 18:0.037037037037037035 19:4.0 
1169.5817929531977 1:0.7857142857142857 2:0.07142857142857142 5:0.07142857142857142 6:0.07142857142857142 10:0.23076923076923078 11:0.19230769230769232 12:0.23076923076923078 13:0.2692307692307692 16:0.038461538461538464 18:0.038461538461538464 19:4.0 
1947.8133885617556 1:0.6666666666666666 2:0.16666666666666666 6:0.16666666666666666 10:0.8571428571428571 15:0.14285714285714285 19:6.0 
1415.8307339597043 3:0.09090909090909091 4:0.7272727272727273 7:0.09090909090909091 9:0.09090909090909091 10:0.32727272727272727 11:0.05454545454545454 12:0.16363636363636364 13:0.36363636363636365 15:0.05454545454545454 17:0.01818181818181818 18:0.01818181818181818 19:6.0 
1785.198513449753 3:0.037037037037037035 4:0.037037037037037035 6:0.037037037037037035 7:0.037037037037037035 9:0.8518518518518519 10:0.375 11:0.125 12:0.125 13:0.25 18:0.125 19:3.0 
1893.6120576463939 1:0.8333333333333334 5:0.16666666666666666 10:0.9705882352941176 14:0.029411764705882353 19:1.0 
1415.5511200513913 1:0.7142857142857143 2:0.21428571428571427 7:0.07142857142857142 10:0.75 11:0.041666666666666664 12:0.020833333333333332 13:0.14583333333333334 15:0.020833333333333332 16:0.020833333333333332 19:6.0 
243.71615759863442 1:0.6875 2:0.1875 3:0.0625 7:0.0625 10:0.5714285714285714 11:0.22857142857142856 12:0.11428571428571428 13:0.08571428571428572 19:7.0 
531.7314671976279 1:0.8055555555555556 2:0.05555555555555555 3:0.027777777777777776 6:0.027777777777777776 7:0.05555555555555555 8:0.027777777777777776 10:0.948051948051948 11:0.03896103896103896 12:0.012987012987012988 19:10.0 
2569.8198961649077 1:0.5813953488372093 2:0.18604651162790697 3:0.13953488372093023 4:0.06976744186046512 7:0.023255813953488372 10:0.7425742574257426 11:0.04950495049504951 12:0.034653465346534656 13:0.10396039603960396 16:0.024752475247524754 17:0.0049504950495049506 18:0.039603960396039604 19:8.0 
707.0363099356256 1:0.14285714285714285 2:0.2857142857142857 3:0.2857142857142857 6:0.14285714285714285 8:0.14285714285714285 10:0.030303030303030304 11:0.06060606060606061 12:0.030303030303030304 13:0.09090909090909091 15:0.06060606060606061 16:0.030303030303030304 17:0.18181818181818182 18:0.5151515151515151 19:3.0 
1436.590792629669 1:0.125 4:0.4166666666666667 6:0.16666666666666666 7:0.041666666666666664 8:0.08333333333333333 9:0.16666666666666666 10:0.045454545454545456 12:0.045454545454545456 13:0.18181818181818182 15:0.09090909090909091 17:0.3181818181818182 18:0.3181818181818182 19:4.0 
1162.4031217733577 1:0.875 2:0.03125 3:0.03125 5:0.03125 6:0.03125 10:1.0 19:3.0 
2569.8198961649077 1:0.7142857142857143 6:0.2857142857142857 10:0.25316455696202533 11:0.08860759493670886 12:0.11392405063291139 13:0.3037974683544304 15:0.0379746835443038 16:0.012658227848101266 18:0.189873417721519 19:6.0 
2569.8198961649077 1:0.9375 5:0.0625 10:0.9396551724137931 11:0.0603448275862069 19:10.0 
2538.025427181122 1:0.3333333333333333 6:0.3333333333333333 8:0.3333333333333333 10:0.47560975609756095 11:0.024390243902439025 13:0.18292682926829268 15:0.024390243902439025 16:0.024390243902439025 17:0.08536585365853659 18:0.18292682926829268 19:9.0 
2569.8198961649077 1:0.9333333333333333 6:0.06666666666666667 10:0.7058823529411765 12:0.17647058823529413 15:0.11764705882352941 19:3.0 
2511.615924334834 6:0.125 8:0.875 10:0.625 17:0.0625 18:0.3125 19:3.0 
899.1190760756954 1:0.36363636363636365 2:0.13636363636363635 3:0.045454545454545456 4:0.3181818181818182 6:0.09090909090909091 8:0.045454545454545456 10:0.5652173913043478 11:0.10434782608695652 12:0.06956521739130435 13:0.16521739130434782 14:0.034782608695652174 15:0.06086956521739131 19:7.0 
2569.8198961649077 7:1.0 11:0.09375 12:0.09375 13:0.21875 18:0.59375 19:1.0 
2432.4589116360085 4:0.4 6:0.025 7:0.05 8:0.075 9:0.45 11:0.030927835051546393 12:0.15463917525773196 13:0.5979381443298969 15:0.020618556701030927 18:0.1958762886597938 19:5.0 
1577.4072591075737 1:0.14285714285714285 3:0.14285714285714285 4:0.5714285714285714 6:0.14285714285714285 10:0.5416666666666666 11:0.041666666666666664 12:0.08333333333333333 13:0.16666666666666666 16:0.041666666666666664 17:0.041666666666666664 18:0.08333333333333333 19:5.0 
2569.8198961649077 1:0.17391304347826086 2:0.17391304347826086 3:0.21739130434782608 4:0.32608695652173914 6:0.043478260869565216 9:0.06521739130434782 11:0.10256410256410256 12:0.038461538461538464 13:0.28205128205128205 17:0.02564102564102564 18:0.5512820512820513 19:2.0 
2381.2441381587105 1:0.75 6:0.25 10:0.7037037037037037 12:0.1111111111111111 13:0.18518518518518517 19:4.0 
324.07808702981055 3:0.025 4:0.325 6:0.025 7:0.025 8:0.075 9:0.525 11:0.020618556701030927 12:0.07216494845360824 13:0.6391752577319587 15:0.020618556701030927 16:0.030927835051546393 18:0.21649484536082475 19:5.0 
243.92752748012342 4:0.2 6:0.2 7:0.2 8:0.4 10:0.2727272727272727 15:0.030303030303030304 16:0.09090909090909091 17:0.18181818181818182 18:0.42424242424242425 19:8.0 
1965.3383921838945 4:0.8333333333333334 6:0.16666666666666666 10:0.4146341463414634 11:0.17073170731707318 12:0.0975609756097561 13:0.21951219512195122 18:0.0975609756097561 19:5.0 
1444.000346767689 2:0.25 3:0.08333333333333333 4:0.5 6:0.16666666666666666 10:0.6507936507936508 11:0.09523809523809523 12:0.047619047619047616 13:0.09523809523809523 14:0.031746031746031744 15:0.015873015873015872 16:0.015873015873015872 18:0.047619047619047616 19:6.0 
1206.0837505409866 1:0.9 6:0.1 10:0.8809523809523809 11:0.02976190476190476 12:0.02976190476190476 13:0.041666666666666664 15:0.011904761904761904 16:0.005952380952380952 19:7.0 
873.035395611376 1:0.6666666666666666 3:0.16666666666666666 7:0.16666666666666666 10:0.9666666666666667 15:0.03333333333333333 19:4.0 
1669.1327223616884 7:0.2 8:0.6 9:0.2 10:0.19230769230769232 11:0.15384615384615385 12:0.038461538461538464 13:0.38461538461538464 17:0.038461538461538464 18:0.19230769230769232 19:3.0 
1426.880605655253 3:0.25 4:0.5833333333333334 7:0.08333333333333333 8:0.08333333333333333 10:0.6990291262135923 11:0.13592233009708737 12:0.06796116504854369 13:0.02912621359223301 15:0.05825242718446602 16:0.009708737864077669 19:6.0 
2431.9011915333926 2:0.125 3:0.03125 4:0.21875 6:0.03125 9:0.59375 11:0.034482758620689655 13:0.4482758620689655 17:0.034482758620689655 18:0.4827586206896552 19:6.0 
1867.8300923326765 1:0.4 2:0.4 6:0.2 12:0.05555555555555555 13:0.9444444444444444 19:1.0 
2443.8670360598817 1:0.5 2:0.125 3:0.09375 4:0.21875 5:0.0625 10:0.5172413793103449 11:0.034482758620689655 12:0.06896551724137931 13:0.20689655172413793 14:0.10344827586206896 15:0.034482758620689655 18:0.034482758620689655 19:6.0 
2569.8198961649077 1:0.03896103896103896 4:0.012987012987012988 6:0.05194805194805195 7:0.11688311688311688 8:0.12987012987012986 9:0.6493506493506493 10:0.24161073825503357 15:0.09395973154362416 16:0.06040268456375839 17:0.2483221476510067 18:0.35570469798657717 19:4.0 
1542.092627994549 1:0.17647058823529413 2:0.17647058823529413 3:0.029411764705882353 4:0.2647058823529412 6:0.029411764705882353 7:0.029411764705882353 8:0.14705882352941177 9:0.14705882352941177 10:0.42592592592592593 12:0.023148148148148147 13:0.25 14:0.004629629629629629 15:0.06944444444444445 16:0.05555555555555555 17:0.041666666666666664 18:0.12962962962962962 19:5.0 
26.99513855919529 4:0.6 6:0.4 10:0.4878048780487805 11:0.04878048780487805 12:0.0975609756097561 13:0.24390243902439024 14:0.024390243902439025 15:0.024390243902439025 16:0.024390243902439025 17:0.04878048780487805 19:6.0 
2098.752258702315 1:0.9 7:0.1 10:0.8125 11:0.0625 12:0.041666666666666664 14:0.041666666666666664 17:0.041666666666666664 19:9.0 
740.9148078619745 7:1.0 10:0.5 11:0.25 13:0.25 19:1.0 
2569.8198961649077 3:0.26666666666666666 4:0.6 7:0.06666666666666667 8:0.06666666666666667 10:0.23076923076923078 11:0.1282051282051282 12:0.05128205128205128 13:0.38461538461538464 15:0.10256410256410256 18:0.10256410256410256 19:5.0 
1271.7050441890715 2:0.2 4:0.2 7:0.2 8:0.4 10:0.21052631578947367 11:0.05263157894736842 12:0.3684210526315789 13:0.21052631578947367 17:0.15789473684210525 19:6.0 
634.2840143993739 1:0.5 2:0.25 6:0.25 10:0.6052631578947368 11:0.13157894736842105 12:0.10526315789473684 13:0.11842105263157894 14:0.02631578947368421 16:0.013157894736842105 19:7.0 
2038.8333824365889 2:0.0625 3:0.125 4:0.71875 7:0.0625 8:0.03125 10:0.2549019607843137 11:0.0784313725490196 12:0.058823529411764705 13:0.29411764705882354 14:0.00980392156862745 15:0.029411764705882353 16:0.0392156862745098 17:0.10784313725490197 18:0.12745098039215685 19:7.0 
1937.2050149903712 1:0.38461538461538464 2:0.3076923076923077 3:0.23076923076923078 6:0.07692307692307693 10:0.8333333333333334 17:0.16666666666666666 19:4.0 
2569.8198961649077 3:0.13636363636363635 4:0.7727272727272727 7:0.045454545454545456 8:0.045454545454545456 10:0.2624113475177305 11:0.04964539007092199 12:0.09929078014184398 13:0.3971631205673759 14:0.0070921985815602835 15:0.0070921985815602835 18:0.1773049645390071 19:8.0 
275.2315325342103 1:0.8677685950413223 2:0.04132231404958678 3:0.01652892561983471 4:0.024793388429752067 6:0.024793388429752067 7:0.01652892561983471 8:0.008264462809917356 10:0.6506849315068494 11:0.0684931506849315 12:0.0410958904109589 13:0.1506849315068493 18:0.08904109589041095 19:14.0 
2569.8198961649077 1:0.7037037037037037 2:0.037037037037037035 4:0.07407407407407407 6:0.037037037037037035 7:0.037037037037037035 8:0.1111111111111111 10:1.0 19:3.0 
2569.8198961649077 1:0.14285714285714285 2:0.35714285714285715 3:0.2857142857142857 4:0.14285714285714285 6:0.07142857142857142 12:0.027777777777777776 13:0.7777777777777778 18:0.19444444444444445 19:1.0 
1156.1515744538751 3:0.09090909090909091 4:0.8181818181818182 6:0.09090909090909091 13:0.5178571428571429 15:0.017857142857142856 16:0.03571428571428571 17:0.05357142857142857 18:0.375 19:3.0 
407.76110838706535 1:0.4 2:0.4 3:0.1 6:0.1 10:0.6726190476190477 11:0.07142857142857142 12:0.06547619047619048 13:0.11904761904761904 15:0.05357142857142857 17:0.011904761904761904 18:0.005952380952380952 19:7.0 
2569.8198961649077 1:0.8333333333333334 3:0.08333333333333333 6:0.08333333333333333 10:0.7610619469026548 11:0.061946902654867256 12:0.04424778761061947 13:0.09734513274336283 15:0.017699115044247787 16:0.017699115044247787 19:8.0 
2569.8198961649077 3:0.0625 4:0.28125 6:0.03125 9:0.625 13:0.41379310344827586 18:0.5862068965517241 19:6.0 
2569.8198961649077 1:0.7777777777777778 3:0.1111111111111111 6:0.1111111111111111 10:1.0 19:1.0 
2569.8198961649077 1:0.2037037037037037 2:0.25925925925925924 3:0.14814814814814814 4:0.37037037037037035 6:0.018518518518518517 11:0.008333333333333333 12:0.05 13:0.5083333333333333 18:0.43333333333333335 19:2.0 
1202.9306441420056 1:0.20689655172413793 2:0.10344827586206896 3:0.06896551724137931 4:0.27586206896551724 7:0.034482758620689655 8:0.034482758620689655 9:0.27586206896551724 10:0.55 11:0.075 12:0.125 13:0.2 16:0.025 18:0.025 19:8.0 
779.6780580750493 1:0.6666666666666666 2:0.16666666666666666 7:0.08333333333333333 8:0.08333333333333333 10:0.5873015873015873 11:0.19047619047619047 12:0.07936507936507936 13:0.07936507936507936 15:0.031746031746031744 17:0.015873015873015872 18:0.015873015873015872 19:6.0 
760.7646968930841 1:0.4375 2:0.375 3:0.125 6:0.0625 10:0.7746478873239436 11:0.014084507042253521 12:0.08450704225352113 13:0.08450704225352113 15:0.028169014084507043 18:0.014084507042253521 19:6.0 
2569.8198961649077 1:0.7272727272727273 3:0.09090909090909091 7:0.18181818181818182 10:0.47058823529411764 11:0.14705882352941177 12:0.029411764705882353 13:0.19117647058823528 15:0.014705882352941176 16:0.04411764705882353 17:0.014705882352941176 18:0.08823529411764706 19:3.0 
2569.8198961649077 2:0.058823529411764705 3:0.08823529411764706 4:0.6176470588235294 6:0.029411764705882353 9:0.20588235294117646 10:0.25925925925925924 11:0.05092592592592592 12:0.06481481481481481 13:0.28703703703703703 14:0.004629629629629629 15:0.023148148148148147 16:0.013888888888888888 17:0.023148148148148147 18:0.27314814814814814 19:5.0 
2569.8198961649077 4:0.037037037037037035 7:0.037037037037037035 8:0.07407407407407407 9:0.8518518518518519 13:0.375 18:0.625 19:3.0 
762.2097200835568 4:0.1794871794871795 6:0.02564102564102564 8:0.10256410256410256 9:0.6923076923076923 
2569.8198961649077 6:1.0 10:0.7142857142857143 11:0.14285714285714285 13:0.09523809523809523 15:0.047619047619047616 19:3.0 
2033.6210237103955 1:0.2 4:0.15 6:0.5 7:0.15 10:0.6216216216216216 12:0.06756756756756757 13:0.16216216216216217 15:0.05405405405405406 17:0.013513513513513514 18:0.08108108108108109 19:6.0 
2537.3171417973977 4:0.15625 6:0.03125 8:0.03125 9:0.78125 12:0.0196078431372549 13:0.3627450980392157 15:0.029411764705882353 16:0.0196078431372549 18:0.5686274509803921 19:7.0 
1902.9265902058764 1:0.65 2:0.25 3:0.05 6:0.05 10:0.7162162162162162 11:0.05405405405405406 12:0.06756756756756757 13:0.08108108108108109 15:0.06756756756756757 17:0.013513513513513514 19:6.0 
374.01564486230814 3:0.125 4:0.5 6:0.25 8:0.125 10:0.3076923076923077 11:0.1076923076923077 12:0.09230769230769231 13:0.16923076923076924 15:0.1076923076923077 17:0.16923076923076924 18:0.046153846153846156 19:5.0 
863.3727729034313 1:0.0625 2:0.0625 3:0.0625 4:0.4375 6:0.0625 8:0.125 9:0.1875 10:0.24615384615384617 11:0.06153846153846154 12:0.046153846153846156 13:0.2153846153846154 15:0.07692307692307693 17:0.07692307692307693 18:0.27692307692307694 19:5.0 
2569.8198961649077 1:0.8333333333333334 2:0.1111111111111111 5:0.05555555555555555 10:0.6206896551724138 11:0.10344827586206896 12:0.06896551724137931 13:0.13793103448275862 14:0.017241379310344827 15:0.017241379310344827 16:0.017241379310344827 18:0.017241379310344827 19:7.0 
179.60226951126162 1:0.07142857142857142 2:0.35714285714285715 3:0.35714285714285715 4:0.14285714285714285 6:0.07142857142857142 13:0.8055555555555556 18:0.19444444444444445 19:1.0 
1803.7414782939554 1:0.5 6:0.5 10:0.8275862068965517 11:0.034482758620689655 13:0.034482758620689655 15:0.06896551724137931 16:0.034482758620689655 19:5.0 
882.8181676924744 1:0.1 2:0.25 3:0.2 4:0.4 7:0.025 8:0.025 10:0.5670103092783505 11:0.15463917525773196 12:0.08247422680412371 13:0.13402061855670103 15:0.05154639175257732 17:0.010309278350515464 19:5.0 
675.035231472556 2:0.025974025974025976 3:0.012987012987012988 4:0.012987012987012988 7:0.012987012987012988 8:0.06493506493506493 9:0.8701298701298701 11:0.026845637583892617 12:0.0738255033557047 13:0.21476510067114093 15:0.006711409395973154 16:0.03355704697986577 17:0.09395973154362416 18:0.5503355704697986 19:4.0 
227.30209049563206 1:0.25 2:0.3125 3:0.125 4:0.25 7:0.0625 10:0.9285714285714286 11:0.02857142857142857 12:0.04285714285714286 19:6.0 
80.23330027327319 1:0.2413793103448276 2:0.10344827586206896 3:0.10344827586206896 4:0.3448275862068966 7:0.034482758620689655 9:0.1724137931034483 10:0.6 11:0.1 12:0.075 13:0.175 16:0.025 18:0.025 19:8.0 
8.439206726409406 3:0.5 6:0.5 10:0.10144927536231885 11:0.057971014492753624 12:0.043478260869565216 13:0.09420289855072464 15:0.06521739130434782 16:0.021739130434782608 17:0.07246376811594203 18:0.5434782608695652 19:4.0 
2305.7065988311833 1:0.8333333333333334 3:0.08333333333333333 7:0.08333333333333333 10:0.7777777777777778 11:0.047619047619047616 12:0.047619047619047616 13:0.06349206349206349 15:0.047619047619047616 16:0.015873015873015872 19:6.0 
390.3899889364411 2:0.18181818181818182 3:0.36363636363636365 4:0.2727272727272727 7:0.09090909090909091 8:0.09090909090909091 10:0.27941176470588236 11:0.3088235294117647 12:0.19117647058823528 13:0.22058823529411764 19:3.0 
956.9679363539273 4:0.14285714285714285 6:0.2857142857142857 8:0.5714285714285714 10:0.27941176470588236 12:0.04411764705882353 13:0.23529411764705882 15:0.14705882352941177 16:0.08823529411764706 17:0.10294117647058823 18:0.10294117647058823 19:7.0 
112.28237980334654 1:0.2222222222222222 2:0.1111111111111111 3:0.1111111111111111 4:0.4444444444444444 6:0.1111111111111111 10:0.21739130434782608 11:0.08695652173913043 12:0.043478260869565216 13:0.4782608695652174 17:0.08695652173913043 18:0.08695652173913043 19:6.0 
842.3816704233628 1:0.09090909090909091 2:0.22727272727272727 3:0.18181818181818182 4:0.45454545454545453 5:0.045454545454545456 10:0.3404255319148936 11:0.15602836879432624 12:0.1276595744680851 13:0.2624113475177305 14:0.03546099290780142 15:0.014184397163120567 17:0.0070921985815602835 18:0.05673758865248227 19:8.0 
2410.4133327489208 1:0.5 2:0.3 3:0.1 6:0.1 10:0.75 12:0.25 19:3.0 
1037.6976370349466 1:0.25925925925925924 4:0.07407407407407407 5:0.07407407407407407 6:0.2222222222222222 7:0.037037037037037035 8:0.3333333333333333 10:0.9375 14:0.0625 19:3.0 
50.4982921586897 1:0.24489795918367346 2:0.22448979591836735 3:0.10204081632653061 4:0.3877551020408163 6:0.02040816326530612 9:0.02040816326530612 10:0.18617021276595744 11:0.031914893617021274 12:0.031914893617021274 13:0.18617021276595744 15:0.015957446808510637 16:0.005319148936170213 18:0.5425531914893617 19:12.0 
2569.8198961649077 1:0.6153846153846154 2:0.23076923076923078 3:0.07692307692307693 6:0.07692307692307693 10:0.8333333333333334 13:0.16666666666666666 19:4.0 
2569.8198961649077 1:0.8 4:0.1 7:0.1 10:0.625 11:0.35 12:0.025 19:3.0 
12.264554125319751 1:0.625 2:0.16666666666666666 3:0.08333333333333333 4:0.08333333333333333 7:0.041666666666666664 10:0.6548672566371682 11:0.09734513274336283 12:0.035398230088495575 13:0.09734513274336283 14:0.035398230088495575 15:0.05309734513274336 17:0.017699115044247787 18:0.008849557522123894 19:8.0 
188.04669767283 1:0.7727272727272727 2:0.13636363636363635 7:0.045454545454545456 8:0.045454545454545456 10:0.9826086956521739 12:0.008695652173913044 15:0.008695652173913044 19:7.0 
589.0317902502877 1:0.6 2:0.2 3:0.1 6:0.1 10:0.75 11:0.25 19:3.0 
2154.2053578282917 1:0.14285714285714285 2:0.07142857142857142 6:0.21428571428571427 7:0.21428571428571427 8:0.35714285714285715 10:0.29651162790697677 12:0.01744186046511628 13:0.05813953488372093 15:0.03488372093023256 16:0.011627906976744186 17:0.03488372093023256 18:0.5465116279069767 19:2.0 
2569.8198961649077 2:0.07407407407407407 3:0.1111111111111111 4:0.6296296296296297 6:0.037037037037037035 9:0.14814814814814814 10:0.6875 11:0.125 12:0.125 13:0.0625 19:3.0 
33.32393904215682 3:0.3333333333333333 4:0.5 6:0.16666666666666666 10:0.4146341463414634 11:0.1951219512195122 12:0.0975609756097561 13:0.1951219512195122 18:0.0975609756097561 19:5.0 
38.831191368006984 1:0.3333333333333333 2:0.26666666666666666 3:0.13333333333333333 4:0.13333333333333333 7:0.06666666666666667 8:0.06666666666666667 10:0.9166666666666666 15:0.08333333333333333 19:2.0 
284.1534239936634 2:0.75 6:0.25 10:1.0 19:1.0 
1991.795450319059 4:0.6 6:0.06666666666666667 9:0.3333333333333333 10:0.058823529411764705 11:0.23529411764705882 12:0.29411764705882354 13:0.29411764705882354 15:0.058823529411764705 18:0.058823529411764705 19:3.0 
718.3883025622177 2:0.2 7:0.2 8:0.6 10:0.2727272727272727 13:0.09090909090909091 15:0.030303030303030304 16:0.09090909090909091 17:0.15151515151515152 18:0.36363636363636365 19:8.0 
2569.8198961649077 1:0.5 4:0.045454545454545456 6:0.36363636363636365 7:0.09090909090909091 10:0.7478260869565218 15:0.043478260869565216 16:0.02608695652173913 17:0.0782608695652174 18:0.10434782608695652 19:7.0 
1651.530211670733 2:0.037037037037037035 4:0.07407407407407407 7:0.037037037037037035 8:0.037037037037037035 9:0.8148148148148148 10:0.1875 13:0.4375 15:0.0625 17:0.0625 18:0.25 19:3.0 
29.74537515964977 1:0.25 2:0.5 5:0.25 10:0.23809523809523808 14:0.047619047619047616 15:0.09523809523809523 18:0.6190476190476191 19:4.0 
2469.793844090828 4:0.15625 6:0.03125 8:0.0625 9:0.75 12:0.06896551724137931 13:0.10344827586206896 16:0.034482758620689655 17:0.034482758620689655 18:0.7586206896551724 19:6.0 
2569.8198961649077 1:0.7647058823529411 2:0.058823529411764705 4:0.11764705882352941 6:0.058823529411764705 10:0.875 11:0.09375 15:0.03125 19:4.0 
1781.251044405296 1:0.4 2:0.4 3:0.1 5:0.1 10:0.5714285714285714 11:0.2857142857142857 12:0.14285714285714285 19:1.0 
185.6469799770556 1:0.75 2:0.16666666666666666 6:0.08333333333333333 10:0.9019607843137255 11:0.0196078431372549 12:0.0196078431372549 14:0.0392156862745098 17:0.0196078431372549 19:7.0 
2569.8198961649077 2:0.029411764705882353 3:0.029411764705882353 4:0.47058823529411764 6:0.029411764705882353 8:0.029411764705882353 9:0.4117647058823529 10:0.13425925925925927 11:0.06018518518518518 12:0.06481481481481481 13:0.2638888888888889 15:0.009259259259259259 18:0.4675925925925926 19:5.0 
1035.3436892314273 1:0.3181818181818182 2:0.045454545454545456 3:0.09090909090909091 4:0.045454545454545456 6:0.13636363636363635 7:0.09090909090909091 8:0.09090909090909091 9:0.18181818181818182 10:0.5391304347826087 11:0.034782608695652174 13:0.12173913043478261 15:0.08695652173913043 16:0.034782608695652174 17:0.0782608695652174 18:0.10434782608695652 19:7.0 
2545.690215943166 2:0.037037037037037035 3:0.07407407407407407 4:0.6296296296296297 6:0.037037037037037035 8:0.037037037037037035 9:0.18518518518518517 10:0.625 11:0.0625 12:0.125 13:0.0625 15:0.125 19:3.0 
2569.8198961649077 1:0.8 6:0.2 10:0.5909090909090909 11:0.045454545454545456 13:0.13636363636363635 15:0.18181818181818182 17:0.045454545454545456 19:8.0 
1577.4610712276642 1:0.125 2:0.041666666666666664 4:0.125 6:0.125 7:0.041666666666666664 8:0.16666666666666666 9:0.375 10:0.045454545454545456 13:0.3181818181818182 15:0.09090909090909091 17:0.18181818181818182 18:0.36363636363636365 19:4.0 
2569.8198961649077 1:0.8 6:0.2 10:0.7777777777777778 11:0.022222222222222223 12:0.022222222222222223 13:0.13333333333333333 14:0.022222222222222223 16:0.022222222222222223 19:3.0 
1086.5110399708178 1:0.6666666666666666 6:0.3333333333333333 10:0.07692307692307693 12:0.3076923076923077 13:0.5384615384615384 15:0.07692307692307693 19:1.0 
1928.8138838305942 4:0.037037037037037035 7:0.037037037037037035 8:0.07407407407407407 9:0.8518518518518519 11:0.125 12:0.0625 13:0.4375 18:0.375 19:3.0 
406.3097996769381 1:0.6666666666666666 6:0.08333333333333333 7:0.08333333333333333 8:0.16666666666666666 10:0.8484848484848485 15:0.06060606060606061 17:0.09090909090909091 19:2.0 
2569.8198961649077 1:0.9166666666666666 6:0.08333333333333333 10:0.8088235294117647 11:0.029411764705882353 12:0.029411764705882353 13:0.058823529411764705 14:0.058823529411764705 15:0.014705882352941176 19:7.0 
2076.3147452890544 1:0.6666666666666666 6:0.16666666666666666 8:0.16666666666666666 10:1.0 19:1.0 
322.20677489733225 2:0.125 4:0.75 7:0.125 10:0.39759036144578314 11:0.10843373493975904 12:0.07228915662650602 13:0.3855421686746988 15:0.024096385542168676 18:0.012048192771084338 19:9.0 
2569.8198961649077 1:0.36363636363636365 6:0.18181818181818182 7:0.13636363636363635 8:0.13636363636363635 9:0.18181818181818182 10:0.5739130434782609 11:0.02608695652173913 12:0.034782608695652174 13:0.10434782608695652 15:0.09565217391304348 16:0.034782608695652174 17:0.0782608695652174 18:0.05217391304347826 19:7.0 
29.643385744734477 1:0.7777777777777778 2:0.07407407407407407 3:0.07407407407407407 5:0.037037037037037035 7:0.037037037037037035 10:0.9375 14:0.0625 19:3.0 
1757.490179965114 7:1.0 10:0.6851851851851852 11:0.1111111111111111 12:0.018518518518518517 13:0.14814814814814814 15:0.018518518518518517 16:0.018518518518518517 19:4.0 
627.4384813780623 2:0.018518518518518517 3:0.07407407407407407 4:0.5925925925925926 6:0.037037037037037035 7:0.018518518518518517 8:0.2222222222222222 9:0.037037037037037035 10:0.38016528925619836 11:0.14049586776859505 12:0.08264462809917356 13:0.38016528925619836 18:0.01652892561983471 19:2.0 
2569.8198961649077 1:0.9310344827586207 2:0.034482758620689655 5:0.034482758620689655 10:0.925 11:0.025 12:0.025 16:0.025 19:8.0 
97.15873767949039 1:0.125 2:0.3125 3:0.125 4:0.25 6:0.125 9:0.0625 10:0.8142857142857143 11:0.08571428571428572 12:0.02857142857142857 13:0.05714285714285714 16:0.014285714285714285 19:6.0 
428.37537452378234 2:0.5 6:0.5 
1013.9805633445116 1:0.625 2:0.125 3:0.125 7:0.041666666666666664 8:0.08333333333333333 10:0.6194690265486725 11:0.10619469026548672 12:0.035398230088495575 13:0.07964601769911504 14:0.035398230088495575 15:0.07079646017699115 16:0.008849557522123894 17:0.035398230088495575 18:0.008849557522123894 19:8.0 
96.64701294779574 3:0.1 4:0.7 7:0.1 8:0.1 12:0.14285714285714285 13:0.8571428571428571 19:1.0 
1081.514257005268 1:0.7692307692307693 2:0.15384615384615385 7:0.07692307692307693 10:0.967741935483871 11:0.010752688172043012 12:0.010752688172043012 17:0.010752688172043012 19:9.0 
2020.9057677820017 2:0.0625 3:0.0625 4:0.15625 6:0.03125 8:0.0625 9:0.625 13:0.2413793103448276 15:0.034482758620689655 17:0.034482758620689655 18:0.6896551724137931 19:6.0 
2569.8198961649077 1:0.13333333333333333 2:0.26666666666666666 3:0.06666666666666667 4:0.4 6:0.06666666666666667 9:0.06666666666666667 10:0.3387096774193548 11:0.0967741935483871 12:0.06451612903225806 13:0.27419354838709675 18:0.22580645161290322 19:4.0 
1383.1046070207346 1:0.5652173913043478 2:0.2608695652173913 3:0.13043478260869565 6:0.043478260869565216 13:0.75 17:0.08333333333333333 18:0.16666666666666666 19:1.0 
2569.8198961649077 6:0.5 7:0.25 8:0.25 10:0.5102040816326531 11:0.10204081632653061 12:0.061224489795918366 13:0.1836734693877551 15:0.02040816326530612 17:0.12244897959183673 19:6.0 
686.4517472810296 2:0.037037037037037035 3:0.037037037037037035 4:0.037037037037037035 7:0.037037037037037035 9:0.8518518518518519 10:0.25 11:0.125 12:0.0625 13:0.3125 16:0.0625 18:0.1875 19:3.0 
1384.9879818030258 6:0.16666666666666666 7:0.6666666666666666 8:0.16666666666666666 10:0.6333333333333333 11:0.08333333333333333 12:0.08333333333333333 13:0.03333333333333333 15:0.11666666666666667 16:0.05 19:4.0 
1924.086906114411 1:0.18181818181818182 2:0.049586776859504134 3:0.06611570247933884 4:0.38016528925619836 6:0.008264462809917356 8:0.01652892561983471 9:0.2975206611570248 10:0.6027397260273972 11:0.136986301369863 12:0.0821917808219178 13:0.17123287671232876 18:0.00684931506849315 19:14.0 
2569.8198961649077 2:0.10344827586206896 3:0.10344827586206896 4:0.4827586206896552 6:0.034482758620689655 9:0.27586206896551724 10:0.36585365853658536 11:0.024390243902439025 12:0.024390243902439025 13:0.21951219512195122 18:0.36585365853658536 19:8.0 
1668.1500156155425 1:0.1875 2:0.3125 3:0.125 4:0.25 7:0.0625 8:0.0625 10:0.8571428571428571 11:0.08571428571428572 12:0.02857142857142857 13:0.02857142857142857 19:6.0 
1094.2289500037225 1:0.45161290322580644 2:0.25806451612903225 3:0.1935483870967742 4:0.06451612903225806 6:0.03225806451612903 10:0.8613861386138614 12:0.019801980198019802 13:0.039603960396039604 15:0.039603960396039604 16:0.019801980198019802 17:0.019801980198019802 19:6.0 
1182.6075963984563 2:0.07692307692307693 4:0.8461538461538461 6:0.07692307692307693 10:0.3333333333333333 11:0.3333333333333333 13:0.3333333333333333 19:4.0 
2569.8198961649077 1:0.3333333333333333 6:0.6666666666666666 10:0.46153846153846156 12:0.15384615384615385 13:0.07692307692307693 15:0.23076923076923078 16:0.07692307692307693 19:4.0 
188.31974351309822 3:0.16666666666666666 4:0.5833333333333334 6:0.08333333333333333 9:0.16666666666666666 10:0.06349206349206349 11:0.031746031746031744 12:0.047619047619047616 13:0.38095238095238093 15:0.047619047619047616 16:0.015873015873015872 17:0.015873015873015872 18:0.3968253968253968 19:6.0 
1746.6104253402166 1:0.2 6:0.4 7:0.4 10:0.45 13:0.275 15:0.15 17:0.125 19:7.0 
2.195496900466233 2:0.5 3:0.3333333333333333 7:0.16666666666666666 10:0.8817204301075269 11:0.043010752688172046 12:0.010752688172043012 13:0.021505376344086023 14:0.010752688172043012 16:0.021505376344086023 17:0.010752688172043012 19:9.0 
1784.3867063405173 1:0.3 2:0.25 3:0.175 4:0.225 7:0.025 8:0.025 10:0.7422680412371134 11:0.10309278350515463 12:0.07216494845360824 13:0.07216494845360824 15:0.010309278350515464 19:5.0 
1282.890698864485 6:0.25 7:0.375 8:0.375 10:0.4528301886792453 11:0.1320754716981132 12:0.16981132075471697 13:0.09433962264150944 15:0.05660377358490566 16:0.07547169811320754 17:0.018867924528301886 19:3.0 
2569.8198961649077 2:0.1111111111111111 3:0.14814814814814814 4:0.6296296296296297 6:0.037037037037037035 9:0.07407407407407407 10:0.6875 11:0.25 13:0.0625 19:3.0 
1326.6530146398827 6:0.2 7:0.2 8:0.6 10:0.2727272727272727 13:0.09090909090909091 15:0.030303030303030304 16:0.09090909090909091 17:0.15151515151515152 18:0.36363636363636365 19:8.0 
2311.2336432067314 1:0.8571428571428571 7:0.14285714285714285 13:0.6818181818181818 18:0.3181818181818182 19:1.0 
2569.8198961649077 4:0.6470588235294118 7:0.058823529411764705 9:0.29411764705882354 10:0.034013605442176874 11:0.047619047619047616 12:0.08163265306122448 13:0.42857142857142855 17:0.04081632653061224 18:0.3673469387755102 19:4.0 
276.2101628612158 2:0.0625 3:0.09375 4:0.25 6:0.03125 9:0.5625 12:0.034482758620689655 13:0.5517241379310345 18:0.41379310344827586 19:6.0 
2569.8198961649077 4:0.8 6:0.2 10:0.25925925925925924 11:0.2037037037037037 12:0.12962962962962962 13:0.4074074074074074 19:6.0 
2569.8198961649077 1:0.9230769230769231 2:0.02564102564102564 3:0.02564102564102564 6:0.02564102564102564 
232.54120386982981 7:1.0 13:0.5 15:0.5 19:2.0 
1816.0030907899686 3:0.037037037037037035 4:0.2962962962962963 6:0.037037037037037035 7:0.07407407407407407 8:0.037037037037037035 9:0.5185185185185185 10:0.625 11:0.125 12:0.125 13:0.125 19:3.0 
2569.8198961649077 2:0.025974025974025976 4:0.03896103896103896 7:0.025974025974025976 8:0.05194805194805195 9:0.8571428571428571 11:0.0738255033557047 12:0.11409395973154363 13:0.16778523489932887 15:0.006711409395973154 16:0.020134228187919462 17:0.087248322147651 18:0.5302013422818792 19:4.0 
498.94307400105055 1:0.6666666666666666 4:0.16666666666666666 7:0.16666666666666666 10:1.0 19:1.0 
358.97290106234556 2:0.021739130434782608 3:0.043478260869565216 4:0.021739130434782608 6:0.08695652173913043 7:0.10869565217391304 8:0.41304347826086957 9:0.30434782608695654 11:0.01282051282051282 16:0.0641025641025641 17:0.20512820512820512 18:0.717948717948718 19:2.0 
2537.043440530556 1:0.8888888888888888 2:0.05555555555555555 6:0.05555555555555555 10:0.37142857142857144 11:0.05714285714285714 13:0.2857142857142857 15:0.17142857142857143 16:0.08571428571428572 18:0.02857142857142857 19:4.0 
275.6026963935362 2:0.5 6:0.5 10:0.6 11:0.2 13:0.2 19:5.0 
1584.5299501965621 2:0.2 3:0.3333333333333333 4:0.4 6:0.06666666666666667 10:0.5 11:0.08333333333333333 12:0.16666666666666666 13:0.08333333333333333 15:0.16666666666666666 19:2.0 
2569.8198961649077 1:0.8260869565217391 2:0.08695652173913043 3:0.021739130434782608 5:0.021739130434782608 6:0.043478260869565216 10:0.28205128205128205 11:0.15384615384615385 12:0.07692307692307693 13:0.4358974358974359 14:0.01282051282051282 15:0.01282051282051282 18:0.02564102564102564 19:2.0 
2569.8198961649077 1:0.8 6:0.2 10:0.7692307692307693 11:0.038461538461538464 12:0.11538461538461539 13:0.038461538461538464 17:0.038461538461538464 19:4.0 
120.81418271820685 2:0.6666666666666666 3:0.16666666666666666 7:0.16666666666666666 10:0.8924731182795699 11:0.03225806451612903 12:0.021505376344086023 13:0.03225806451612903 14:0.010752688172043012 16:0.010752688172043012 19:9.0 
1083.421996164303 1:0.775 2:0.125 3:0.05 6:0.025 7:0.025 10:0.9381443298969072 11:0.030927835051546393 12:0.020618556701030927 15:0.010309278350515464 19:5.0 
715.1647169603987 4:0.17647058823529413 6:0.029411764705882353 7:0.08823529411764706 8:0.029411764705882353 9:0.6764705882352942 10:0.1574074074074074 11:0.046296296296296294 12:0.041666666666666664 13:0.22685185185185186 14:0.004629629629629629 15:0.032407407407407406 16:0.018518518518518517 17:0.06481481481481481 18:0.4074074074074074 19:5.0 
2569.8198961649077 2:0.07692307692307693 4:0.8461538461538461 6:0.07692307692307693 10:0.05084745762711865 11:0.0847457627118644 12:0.0847457627118644 13:0.3050847457627119 16:0.01694915254237288 17:0.01694915254237288 18:0.4406779661016949 19:3.0 
214.6308125037718 1:0.5 2:0.3333333333333333 4:0.08333333333333333 7:0.08333333333333333 10:0.532258064516129 11:0.016129032258064516 12:0.08064516129032258 13:0.24193548387096775 15:0.08064516129032258 16:0.03225806451612903 17:0.016129032258064516 19:9.0 
610.5170193210835 1:0.2222222222222222 3:0.3333333333333333 4:0.2222222222222222 6:0.2222222222222222 10:0.30434782608695654 11:0.13043478260869565 12:0.17391304347826086 13:0.34782608695652173 18:0.043478260869565216 19:6.0 
1802.0203154536305 2:0.16666666666666666 3:0.25 4:0.5 6:0.027777777777777776 8:0.027777777777777776 9:0.027777777777777776 10:0.5844155844155844 11:0.19480519480519481 12:0.05194805194805195 13:0.14285714285714285 14:0.012987012987012988 15:0.012987012987012988 19:10.0 
184.44804445930018 1:0.9 5:0.1 10:0.925 11:0.025 14:0.0375 15:0.0125 19:8.0 
304.28081884238037 2:0.6 3:0.2 5:0.2 10:0.13559322033898305 11:0.05084745762711865 12:0.11864406779661017 13:0.576271186440678 18:0.11864406779661017 19:2.0 
703.5257970451396 1:0.6923076923076923 6:0.3076923076923077 10:0.2222222222222222 11:0.05555555555555555 15:0.16666666666666666 16:0.05555555555555555 17:0.2777777777777778 18:0.2222222222222222 19:2.0 
9.84064506905142 1:0.75 2:0.08333333333333333 7:0.08333333333333333 8:0.08333333333333333 10:0.6349206349206349 11:0.15873015873015872 12:0.047619047619047616 13:0.09523809523809523 15:0.047619047619047616 18:0.015873015873015872 19:6.0 
475.3309810175023 2:0.375 3:0.3125 4:0.25 6:0.0625 10:0.4 11:0.1076923076923077 12:0.07692307692307693 13:0.2923076923076923 14:0.03076923076923077 15:0.09230769230769231 19:5.0 
1778.55434231204 4:0.9285714285714286 6:0.07142857142857142 13:0.19444444444444445 18:0.8055555555555556 19:1.0 
223.84983581186503 2:0.11764705882352941 3:0.17647058823529413 4:0.35294117647058826 6:0.058823529411764705 8:0.29411764705882354 10:0.22807017543859648 11:0.05263157894736842 12:0.017543859649122806 13:0.10526315789473684 15:0.05263157894736842 17:0.17543859649122806 18:0.3684210526315789 19:4.0 
562.6655266051641 1:0.3333333333333333 2:0.1111111111111111 3:0.2222222222222222 4:0.1111111111111111 6:0.2222222222222222 10:0.30434782608695654 11:0.13043478260869565 12:0.2608695652173913 13:0.2608695652173913 15:0.043478260869565216 19:6.0 
21.141696230475613 2:0.2 4:0.6 6:0.2 10:0.4634146341463415 11:0.07317073170731707 12:0.12195121951219512 13:0.2682926829268293 14:0.024390243902439025 15:0.024390243902439025 18:0.024390243902439025 19:6.0 
106.55334543203405 1:0.07692307692307693 3:0.3076923076923077 4:0.5384615384615384 6:0.07692307692307693 10:0.3333333333333333 11:0.16666666666666666 12:0.16666666666666666 13:0.16666666666666666 15:0.16666666666666666 19:4.0 
1585.111253697212 1:0.5 2:0.16666666666666666 3:0.16666666666666666 6:0.08333333333333333 8:0.08333333333333333 10:0.5079365079365079 11:0.09523809523809523 12:0.14285714285714285 13:0.15873015873015872 15:0.015873015873015872 17:0.031746031746031744 18:0.047619047619047616 19:6.0 
2569.8198961649077 1:0.0625 3:0.09375 4:0.53125 6:0.03125 9:0.28125 10:0.4019607843137255 11:0.12745098039215685 12:0.13725490196078433 13:0.17647058823529413 15:0.00980392156862745 18:0.14705882352941177 19:7.0 
2569.8198961649077 2:0.3333333333333333 3:0.16666666666666666 4:0.4166666666666667 6:0.08333333333333333 10:0.5436893203883495 12:0.019417475728155338 13:0.07766990291262135 15:0.18446601941747573 16:0.05825242718446602 17:0.038834951456310676 18:0.07766990291262135 19:6.0 
2569.8198961649077 1:0.9473684210526315 5:0.05263157894736842 10:0.9333333333333333 11:0.013333333333333334 14:0.013333333333333334 16:0.02666666666666667 17:0.013333333333333334 19:8.0 
2009.9505316708699 2:0.012987012987012988 4:0.2727272727272727 6:0.012987012987012988 7:0.025974025974025976 9:0.6753246753246753 10:0.174496644295302 11:0.04697986577181208 12:0.0738255033557047 13:0.26174496644295303 15:0.040268456375838924 16:0.026845637583892617 17:0.053691275167785234 18:0.3221476510067114 19:4.0 
2569.8198961649077 4:0.17391304347826086 7:0.06521739130434782 8:0.13043478260869565 9:0.6304347826086957 15:0.01282051282051282 16:0.01282051282051282 17:0.05128205128205128 18:0.9230769230769231 19:2.0 
2569.8198961649077 1:0.14814814814814814 2:0.25925925925925924 3:0.18518518518518517 4:0.3888888888888889 5:0.018518518518518517 12:0.03333333333333333 13:0.48333333333333334 18:0.48333333333333334 19:2.0 
2569.8198961649077 1:0.4 2:0.3333333333333333 4:0.13333333333333333 6:0.13333333333333333 10:0.6153846153846154 11:0.07692307692307693 12:0.05128205128205128 13:0.23076923076923078 16:0.02564102564102564 19:5.0 
1269.0534975902258 1:0.25 7:0.25 8:0.5 10:0.5952380952380952 13:0.023809523809523808 15:0.09523809523809523 16:0.047619047619047616 17:0.14285714285714285 18:0.09523809523809523 19:6.0 
122.08986953450696 1:0.08333333333333333 2:0.125 3:0.125 4:0.5833333333333334 6:0.041666666666666664 9:0.041666666666666664 11:0.18181818181818182 12:0.13636363636363635 13:0.36363636363636365 18:0.3181818181818182 19:4.0 
2569.8198961649077 1:0.8461538461538461 2:0.07692307692307693 6:0.07692307692307693 10:0.8333333333333334 11:0.16666666666666666 19:4.0 
789.6899698535683 1:0.5 6:0.2 8:0.3 10:0.5757575757575758 13:0.09090909090909091 15:0.12121212121212122 16:0.06060606060606061 17:0.030303030303030304 18:0.12121212121212122 19:3.0 
116.74504031478536 7:1.0 10:0.3333333333333333 15:0.3333333333333333 17:0.16666666666666666 18:0.16666666666666666 19:4.0 
2569.8198961649077 1:0.8205128205128205 2:0.05128205128205128 3:0.05128205128205128 6:0.05128205128205128 7:0.02564102564102564 
18.350847001801956 1:0.4 2:0.4 7:0.2 10:0.6538461538461539 11:0.07692307692307693 13:0.23076923076923078 18:0.038461538461538464 19:4.0 
1.862993626614234 3:0.6666666666666666 4:0.16666666666666666 6:0.16666666666666666 10:0.8494623655913979 11:0.07526881720430108 12:0.010752688172043012 13:0.021505376344086023 14:0.010752688172043012 16:0.021505376344086023 17:0.010752688172043012 19:9.0 
1270.1126209708004 4:0.40625 6:0.03125 9:0.5625 11:0.0196078431372549 12:0.049019607843137254 13:0.38235294117647056 15:0.00980392156862745 16:0.00980392156862745 18:0.5294117647058824 19:7.0 
2569.8198961649077 1:0.7407407407407407 2:0.18518518518518517 3:0.05555555555555555 6:0.018518518518518517 10:0.371900826446281 12:0.04132231404958678 13:0.24793388429752067 14:0.008264462809917356 15:0.05785123966942149 16:0.0743801652892562 17:0.06611570247933884 18:0.1322314049586777 19:2.0 
598.0088766797998 1:0.06666666666666667 2:0.13333333333333333 4:0.6666666666666666 6:0.06666666666666667 9:0.06666666666666667 10:1.0 19:1.0 
81.39992009716944 3:0.18181818181818182 4:0.45454545454545453 7:0.09090909090909091 8:0.2727272727272727 10:0.058823529411764705 11:0.22058823529411764 12:0.3235294117647059 13:0.39705882352941174 19:3.0 
2569.8198961649077 4:0.2727272727272727 6:0.045454545454545456 8:0.13636363636363635 9:0.5454545454545454 10:0.30434782608695654 11:0.08695652173913043 12:0.05217391304347826 13:0.20869565217391303 15:0.02608695652173913 17:0.06086956521739131 18:0.2608695652173913 19:7.0 
2569.8198961649077 1:0.875 7:0.0625 8:0.0625 10:0.8372093023255814 11:0.09302325581395349 12:0.06976744186046512 19:8.0 
1289.7627493042378 1:0.8333333333333334 4:0.08333333333333333 7:0.08333333333333333 10:0.7301587301587301 11:0.1111111111111111 12:0.015873015873015872 13:0.07936507936507936 15:0.031746031746031744 16:0.015873015873015872 17:0.015873015873015872 19:6.0 
2569.8198961649077 1:0.42105263157894735 2:0.3157894736842105 3:0.10526315789473684 4:0.10526315789473684 6:0.05263157894736842 10:0.5161290322580645 11:0.0967741935483871 13:0.3548387096774194 18:0.03225806451612903 19:7.0 
2569.8198961649077 1:0.7037037037037037 3:0.037037037037037035 4:0.037037037037037035 6:0.037037037037037035 7:0.037037037037037035 8:0.14814814814814814 10:1.0 19:3.0 
589.5243823226067 2:0.030303030303030304 4:0.5454545454545454 7:0.030303030303030304 9:0.3939393939393939 10:0.030303030303030304 11:0.05303030303030303 12:0.05303030303030303 13:0.13636363636363635 15:0.03787878787878788 16:0.007575757575757576 17:0.03787878787878788 18:0.6439393939393939 19:6.0 
787.3414746515565 1:0.8 5:0.2 10:0.925 12:0.025 14:0.0375 15:0.0125 19:8.0 
1279.1114596698944 1:0.017543859649122806 2:0.10526315789473684 3:0.24561403508771928 4:0.6140350877192983 7:0.017543859649122806 10:0.41836734693877553 11:0.05102040816326531 13:0.3979591836734694 17:0.030612244897959183 18:0.10204081632653061 19:2.0 
533.1205439139173 1:0.9 6:0.1 10:0.5508474576271186 12:0.059322033898305086 13:0.11016949152542373 15:0.059322033898305086 17:0.0423728813559322 18:0.17796610169491525 19:7.0 
1554.3240322694473 1:0.14814814814814814 2:0.18518518518518517 3:0.07407407407407407 4:0.48148148148148145 7:0.07407407407407407 8:0.037037037037037035 10:1.0 19:3.0 
89.05467255825494 2:0.125 4:0.625 6:0.0625 9:0.1875 10:0.38571428571428573 11:0.17142857142857143 12:0.17142857142857143 13:0.21428571428571427 15:0.014285714285714285 17:0.04285714285714286 19:6.0 
269.3324372845761 1:0.5 4:0.25 6:0.25 12:1.0 19:1.0 
2569.8198961649077 1:0.9230769230769231 2:0.02564102564102564 6:0.02564102564102564 7:0.02564102564102564 
63.856362297288584 3:0.025 4:0.5 6:0.025 7:0.025 8:0.075 9:0.35 11:0.07216494845360824 12:0.2268041237113402 13:0.5360824742268041 15:0.020618556701030927 18:0.14432989690721648 19:5.0 
415.7467137612816 2:0.2222222222222222 3:0.1111111111111111 4:0.2222222222222222 5:0.1111111111111111 9:0.3333333333333333 10:0.15517241379310345 11:0.017241379310344827 12:0.017241379310344827 13:0.10344827586206896 14:0.06896551724137931 15:0.017241379310344827 18:0.6206896551724138 19:7.0 
1571.2785778252392 2:0.10344827586206896 3:0.10344827586206896 4:0.4827586206896552 6:0.034482758620689655 9:0.27586206896551724 10:0.36585365853658536 11:0.024390243902439025 13:0.24390243902439024 18:0.36585365853658536 19:8.0 
472.7612679240377 1:0.7142857142857143 2:0.14285714285714285 7:0.14285714285714285 10:0.7222222222222222 11:0.05555555555555555 12:0.1111111111111111 13:0.05555555555555555 15:0.05555555555555555 19:2.0 
739.7399566930607 2:0.07692307692307693 4:0.7692307692307693 6:0.07692307692307693 9:0.07692307692307693 10:0.3333333333333333 12:0.16666666666666666 13:0.3333333333333333 16:0.16666666666666666 19:4.0 
1210.656403876169 6:0.058823529411764705 7:0.23529411764705882 8:0.7058823529411765 10:0.14035087719298245 11:0.017543859649122806 12:0.05263157894736842 13:0.14035087719298245 15:0.017543859649122806 17:0.15789473684210525 18:0.47368421052631576 19:4.0 
2569.8198961649077 3:0.025974025974025976 4:0.012987012987012988 7:0.025974025974025976 8:0.06493506493506493 9:0.8701298701298701 11:0.006711409395973154 12:0.06711409395973154 13:0.2483221476510067 15:0.006711409395973154 16:0.026845637583892617 17:0.09395973154362416 18:0.5503355704697986 19:4.0 
2037.2075276648789 1:0.5833333333333334 6:0.16666666666666666 7:0.25 10:0.31176470588235294 11:0.011764705882352941 13:0.052941176470588235 15:0.08235294117647059 16:0.029411764705882353 17:0.08823529411764706 18:0.4235294117647059 19:8.0 
2039.5875448027166 1:0.8518518518518519 2:0.07407407407407407 5:0.037037037037037035 7:0.037037037037037035 10:0.9375 14:0.0625 19:3.0 
237.88340132839608 7:0.5 8:0.5 10:0.53125 13:0.03125 15:0.09375 16:0.09375 17:0.25 19:4.0 
1912.9324617691755 2:0.125 4:0.75 6:0.125 10:0.4230769230769231 11:0.11538461538461539 12:0.07692307692307693 13:0.34615384615384615 15:0.019230769230769232 18:0.019230769230769232 19:7.0 
51.51196521590759 1:0.6666666666666666 4:0.16666666666666666 6:0.16666666666666666 10:1.0 19:1.0 
1010.9095246398069 2:0.2 3:0.26666666666666666 4:0.4666666666666667 6:0.06666666666666667 10:0.6470588235294118 11:0.23529411764705882 12:0.058823529411764705 13:0.058823529411764705 19:3.0 
1898.5254704849563 1:0.8205128205128205 3:0.10256410256410256 6:0.05128205128205128 7:0.02564102564102564 
1917.109636603595 6:1.0 10:0.125 11:0.125 12:0.0625 13:0.21875 18:0.46875 19:1.0 
21.824963716963218 1:0.6666666666666666 2:0.16666666666666666 7:0.16666666666666666 10:0.9666666666666667 15:0.016666666666666666 16:0.016666666666666666 19:4.0 
2125.1231892376854 1:0.8888888888888888 2:0.027777777777777776 3:0.05555555555555555 7:0.027777777777777776 10:1.0 19:10.0 
357.7489623429777 1:0.75 2:0.08333333333333333 4:0.08333333333333333 7:0.08333333333333333 10:0.5873015873015873 11:0.19047619047619047 12:0.07936507936507936 13:0.07936507936507936 15:0.031746031746031744 17:0.015873015873015872 18:0.015873015873015872 19:6.0 
69.13405667369801 3:0.0625 4:0.4375 6:0.3125 8:0.125 9:0.0625 10:0.4307692307692308 11:0.07692307692307693 12:0.07692307692307693 13:0.046153846153846156 15:0.18461538461538463 16:0.07692307692307693 17:0.046153846153846156 18:0.06153846153846154 19:5.0 
716.1927265555067 1:0.5652173913043478 2:0.17391304347826086 3:0.13043478260869565 4:0.10869565217391304 6:0.021739130434782608 11:0.01282051282051282 12:0.14102564102564102 13:0.5512820512820513 15:0.01282051282051282 16:0.01282051282051282 17:0.01282051282051282 18:0.2564102564102564 19:2.0 
757.4077603268966 1:0.25 2:0.5 5:0.25 10:0.5945945945945946 11:0.13513513513513514 12:0.06756756756756757 13:0.17567567567567569 14:0.013513513513513514 18:0.013513513513513514 19:6.0 
457.47088378749424 1:0.8333333333333334 3:0.08333333333333333 5:0.08333333333333333 10:0.993103448275862 15:0.006896551724137931 19:9.0 
2569.8198961649077 1:0.3870967741935484 2:0.4838709677419355 3:0.0967741935483871 5:0.03225806451612903 10:0.7592592592592593 11:0.06481481481481481 12:0.05555555555555555 13:0.07407407407407407 14:0.009259259259259259 15:0.018518518518518517 16:0.018518518518518517 19:7.0 
13.017283825080886 4:0.375 6:0.03125 9:0.59375 11:0.034482758620689655 13:0.3103448275862069 15:0.034482758620689655 16:0.06896551724137931 17:0.034482758620689655 18:0.5172413793103449 19:6.0 
639.9759446843418 4:0.2222222222222222 7:0.1111111111111111 8:0.1111111111111111 9:0.5555555555555556 10:0.08695652173913043 11:0.043478260869565216 13:0.08695652173913043 17:0.13043478260869565 18:0.6521739130434783 19:6.0 
200.11780092686507 4:0.3125 6:0.25 8:0.0625 9:0.375 10:0.3384615384615385 11:0.03076923076923077 12:0.07692307692307693 13:0.15384615384615385 15:0.2 16:0.09230769230769231 17:0.03076923076923077 18:0.07692307692307693 19:5.0 
2569.8198961649077 3:0.03896103896103896 4:0.2857142857142857 6:0.025974025974025976 9:0.6493506493506493 10:0.2080536912751678 11:0.087248322147651 12:0.06711409395973154 13:0.2953020134228188 14:0.006711409395973154 15:0.026845637583892617 16:0.013422818791946308 17:0.053691275167785234 18:0.24161073825503357 19:4.0 
784.1750648301459 2:0.07407407407407407 3:0.037037037037037035 4:0.48148148148148145 7:0.07407407407407407 8:0.037037037037037035 9:0.2962962962962963 10:0.875 11:0.125 19:3.0 
742.920309219593 2:0.5 3:0.16666666666666666 4:0.16666666666666666 6:0.16666666666666666 10:0.5166666666666667 11:0.15 12:0.06666666666666667 13:0.18333333333333332 15:0.06666666666666667 16:0.016666666666666666 19:4.0 
345.7421265914576 4:0.3333333333333333 6:0.5 7:0.16666666666666666 10:0.4666666666666667 13:0.16666666666666666 15:0.1 16:0.08333333333333333 17:0.13333333333333333 18:0.05 19:4.0 
8.284386031170992 7:0.15 8:0.05 9:0.8 11:0.03278688524590164 12:0.08196721311475409 13:0.680327868852459 16:0.00819672131147541 17:0.040983606557377046 18:0.1557377049180328 19:5.0 
89.68993211067561 1:0.26666666666666666 4:0.3 6:0.1 7:0.03333333333333333 8:0.16666666666666666 9:0.13333333333333333 10:0.7142857142857143 11:0.06349206349206349 12:0.047619047619047616 13:0.031746031746031744 15:0.14285714285714285 19:10.0 
2530.456403989289 1:0.3076923076923077 2:0.07692307692307693 3:0.23076923076923078 4:0.23076923076923078 6:0.07692307692307693 8:0.07692307692307693 10:0.6190476190476191 11:0.09523809523809523 12:0.047619047619047616 13:0.19047619047619047 16:0.047619047619047616 19:6.0 
344.6065531819992 1:0.25 6:0.5 8:0.25 10:0.6842105263157895 13:0.18421052631578946 15:0.013157894736842105 16:0.013157894736842105 18:0.10526315789473684 19:7.0 
930.7293707691641 6:1.0 10:0.6666666666666666 17:0.3333333333333333 19:3.0 
2044.983454685349 3:0.38461538461538464 4:0.5384615384615384 7:0.07692307692307693 10:0.24468085106382978 11:0.06382978723404255 12:0.0851063829787234 13:0.3404255319148936 14:0.010638297872340425 15:0.02127659574468085 16:0.010638297872340425 17:0.010638297872340425 18:0.2127659574468085 19:9.0 
822.0180966863404 1:0.25 6:0.5 8:0.25 10:0.390625 11:0.015625 12:0.03125 13:0.21875 15:0.03125 17:0.0625 18:0.25 19:8.0 
1.7090304908254823 1:0.07692307692307693 3:0.3076923076923077 4:0.5384615384615384 6:0.07692307692307693 10:0.5 12:0.16666666666666666 13:0.16666666666666666 15:0.16666666666666666 19:4.0 
2569.8198961649077 1:0.23529411764705882 2:0.17647058823529413 3:0.17647058823529413 4:0.29411764705882354 6:0.058823529411764705 8:0.058823529411764705 10:0.625 11:0.09375 12:0.03125 13:0.21875 15:0.03125 19:4.0 
2569.8198961649077 1:0.9272727272727272 2:0.03636363636363636 3:0.01818181818181818 6:0.01818181818181818 10:0.8866666666666667 11:0.05333333333333334 12:0.04666666666666667 15:0.006666666666666667 16:0.006666666666666667 19:7.0 
2569.8198961649077 4:0.38636363636363635 7:0.045454545454545456 8:0.09090909090909091 9:0.4772727272727273 11:0.014218009478672985 12:0.018957345971563982 13:0.1943127962085308 14:0.004739336492890996 15:0.023696682464454975 16:0.03317535545023697 17:0.09004739336492891 18:0.6208530805687204 19:4.0 
1339.4417981109236 1:0.9090909090909091 3:0.01818181818181818 4:0.01818181818181818 6:0.03636363636363636 7:0.01818181818181818 10:0.8533333333333334 11:0.013333333333333334 12:0.03333333333333333 13:0.08666666666666667 15:0.013333333333333334 19:7.0 
332.8026359934438 4:0.2857142857142857 6:0.2857142857142857 7:0.2857142857142857 8:0.14285714285714285 10:0.5833333333333334 12:0.041666666666666664 13:0.25 17:0.041666666666666664 18:0.08333333333333333 19:5.0 
672.4147260476122 7:0.3333333333333333 8:0.6666666666666666 10:0.19047619047619047 15:0.047619047619047616 17:0.09523809523809523 18:0.6666666666666666 19:3.0 
857.4524047239413 1:0.9 6:0.1 10:0.559322033898305 11:0.01694915254237288 12:0.05084745762711865 13:0.1440677966101695 15:0.05084745762711865 17:0.0423728813559322 18:0.13559322033898305 19:7.0 
2297.679922230361 1:0.125 6:0.375 7:0.375 8:0.125 10:0.7083333333333334 13:0.08333333333333333 15:0.041666666666666664 17:0.08333333333333333 18:0.08333333333333333 19:3.0 
206.34650434277862 4:0.8333333333333334 6:0.08333333333333333 8:0.08333333333333333 10:0.3541666666666667 11:0.10416666666666667 12:0.08333333333333333 13:0.22916666666666666 17:0.020833333333333332 18:0.20833333333333334 19:8.0 
1992.1947401372815 1:0.8666666666666667 5:0.13333333333333333 10:0.8709677419354839 11:0.06451612903225806 13:0.04838709677419355 14:0.016129032258064516 19:4.0 
2266.2625731569856 1:0.967479674796748 2:0.016260162601626018 7:0.008130081300813009 8:0.008130081300813009 10:1.0 19:14.0 
2569.8198961649077 3:0.13333333333333333 4:0.6 7:0.03333333333333333 8:0.16666666666666666 9:0.06666666666666667 10:0.48760330578512395 11:0.19008264462809918 12:0.1487603305785124 13:0.14049586776859505 15:0.03305785123966942 19:4.0 
622.1424100014165 2:0.075 3:0.05 4:0.725 7:0.05 8:0.05 9:0.05 10:0.20618556701030927 11:0.17525773195876287 12:0.18556701030927836 13:0.32989690721649484 15:0.05154639175257732 18:0.05154639175257732 19:5.0 
851.5127001753419 1:0.1111111111111111 2:0.1111111111111111 3:0.5555555555555556 6:0.2222222222222222 10:0.42424242424242425 12:0.045454545454545456 13:0.3181818181818182 15:0.030303030303030304 16:0.030303030303030304 17:0.10606060606060606 18:0.045454545454545456 19:8.0 
2569.8198961649077 1:0.7272727272727273 2:0.18181818181818182 5:0.09090909090909091 10:0.4642857142857143 11:0.10714285714285714 12:0.10714285714285714 13:0.21428571428571427 14:0.03571428571428571 15:0.05357142857142857 16:0.017857142857142856 19:3.0 
1028.073925820128 3:0.0625 4:0.5625 6:0.25 9:0.125 10:0.36923076923076925 13:0.13846153846153847 15:0.24615384615384617 16:0.1076923076923077 17:0.07692307692307693 18:0.06153846153846154 19:5.0 
50.579343867753764 1:0.08695652173913043 2:0.10869565217391304 3:0.043478260869565216 4:0.34782608695652173 6:0.08695652173913043 7:0.021739130434782608 8:0.13043478260869565 9:0.17391304347826086 11:0.01282051282051282 13:0.08974358974358974 16:0.01282051282051282 17:0.0641025641025641 18:0.8205128205128205 19:2.0 
2569.8198961649077 1:0.7272727272727273 2:0.18181818181818182 5:0.09090909090909091 10:0.39285714285714285 11:0.08928571428571429 12:0.17857142857142858 13:0.19642857142857142 14:0.03571428571428571 15:0.08928571428571429 17:0.017857142857142856 19:3.0 
36.0381686408102 6:1.0 10:0.5 11:0.1 12:0.1 13:0.15 15:0.15 19:5.0 
2569.8198961649077 7:0.037037037037037035 8:0.1111111111111111 9:0.8518518518518519 13:0.375 18:0.625 19:3.0 
551.9957723672425 1:0.08333333333333333 2:0.25 3:0.5 4:0.08333333333333333 7:0.08333333333333333 10:0.43137254901960786 11:0.09803921568627451 12:0.058823529411764705 13:0.3137254901960784 15:0.058823529411764705 16:0.0392156862745098 19:7.0 
289.4575532008231 1:0.14285714285714285 3:0.07142857142857142 6:0.2857142857142857 7:0.14285714285714285 8:0.35714285714285715 10:0.3546511627906977 11:0.040697674418604654 12:0.011627906976744186 13:0.16279069767441862 15:0.023255813953488372 16:0.005813953488372093 17:0.005813953488372093 18:0.3953488372093023 19:2.0 
2232.980944709433 7:1.0 10:0.8 15:0.1 17:0.1 19:2.0 
67.29885832130607 1:0.42857142857142855 2:0.14285714285714285 3:0.2857142857142857 6:0.14285714285714285 10:0.40384615384615385 11:0.038461538461538464 12:0.09615384615384616 13:0.34615384615384615 17:0.038461538461538464 18:0.07692307692307693 19:5.0 
2059.0032494664406 1:0.2727272727272727 2:0.45454545454545453 3:0.18181818181818182 7:0.09090909090909091 10:0.5 11:0.08823529411764706 12:0.10294117647058823 13:0.2647058823529412 17:0.029411764705882353 18:0.014705882352941176 19:3.0 
1022.4697278295234 1:0.5 3:0.25 6:0.25 10:0.6666666666666666 11:0.3333333333333333 19:1.0 
286.08641791332616 4:0.9 7:0.1 13:0.8571428571428571 18:0.14285714285714285 19:1.0 
707.9297474320058 1:0.5714285714285714 2:0.14285714285714285 3:0.14285714285714285 6:0.14285714285714285 10:0.6666666666666666 11:0.041666666666666664 13:0.08333333333333333 15:0.041666666666666664 16:0.08333333333333333 17:0.08333333333333333 19:5.0 
2194.798872295301 1:0.16666666666666666 2:0.12962962962962962 4:0.09259259259259259 6:0.05555555555555555 7:0.05555555555555555 8:0.07407407407407407 9:0.42592592592592593 10:0.1652892561983471 11:0.04132231404958678 12:0.06611570247933884 13:0.2809917355371901 15:0.024793388429752067 16:0.008264462809917356 18:0.4132231404958678 19:2.0 
2569.8198961649077 1:0.7 6:0.3 10:0.875 12:0.0125 15:0.0375 16:0.05 17:0.025 19:8.0 
1592.1421820756073 1:0.07407407407407407 2:0.07407407407407407 3:0.09259259259259259 4:0.7037037037037037 6:0.018518518518518517 7:0.018518518518518517 8:0.018518518518518517 10:0.5537190082644629 11:0.14049586776859505 12:0.14049586776859505 13:0.1652892561983471 19:2.0 
2569.8198961649077 2:0.5 3:0.125 4:0.125 6:0.125 8:0.125 10:0.06818181818181818 11:0.22727272727272727 12:0.09090909090909091 13:0.29545454545454547 16:0.022727272727272728 17:0.09090909090909091 18:0.20454545454545456 19:3.0 
813.2351558492855 1:0.8 6:0.2 10:0.5454545454545454 13:0.15151515151515152 15:0.030303030303030304 17:0.09090909090909091 18:0.18181818181818182 19:8.0 
20.858100533506448 1:0.5 2:0.25 6:0.08333333333333333 7:0.08333333333333333 8:0.08333333333333333 10:0.5079365079365079 11:0.07936507936507936 12:0.1746031746031746 13:0.12698412698412698 15:0.031746031746031744 17:0.031746031746031744 18:0.047619047619047616 19:6.0 
487.4685869333789 3:0.058823529411764705 4:0.35294117647058826 7:0.058823529411764705 8:0.17647058823529413 9:0.35294117647058826 10:0.05263157894736842 11:0.017543859649122806 12:0.03508771929824561 13:0.45614035087719296 15:0.03508771929824561 17:0.10526315789473684 18:0.2982456140350877 19:4.0 
167.2220990435411 1:0.8461538461538461 3:0.07692307692307693 6:0.07692307692307693 10:0.9893617021276596 16:0.010638297872340425 19:9.0 
2569.8198961649077 3:0.03125 4:0.28125 6:0.03125 9:0.65625 13:0.13793103448275862 15:0.034482758620689655 18:0.8275862068965517 19:6.0 
2569.8198961649077 2:0.23809523809523808 3:0.19047619047619047 4:0.47619047619047616 6:0.047619047619047616 8:0.047619047619047616 10:0.3780487804878049 11:0.17073170731707318 12:0.14634146341463414 13:0.23170731707317074 15:0.04878048780487805 16:0.012195121951219513 17:0.012195121951219513 19:6.0 
206.22687514640708 1:0.0625 3:0.3125 4:0.375 6:0.125 8:0.0625 9:0.0625 10:0.5428571428571428 11:0.21428571428571427 12:0.1 13:0.08571428571428572 15:0.014285714285714285 16:0.014285714285714285 17:0.02857142857142857 19:6.0 
563.9100566851947 1:0.23076923076923078 3:0.07692307692307693 4:0.15384615384615385 6:0.15384615384615385 7:0.07692307692307693 8:0.23076923076923078 9:0.07692307692307693 10:0.47619047619047616 11:0.14285714285714285 12:0.14285714285714285 13:0.19047619047619047 16:0.047619047619047616 19:6.0 
723.8013094291895 3:0.029411764705882353 7:0.058823529411764705 8:0.17647058823529413 9:0.7352941176470589 13:0.018518518518518517 15:0.009259259259259259 16:0.06018518518518518 17:0.19444444444444445 18:0.7175925925925926 19:5.0 
2569.8198961649077 2:0.043478260869565216 3:0.21739130434782608 4:0.6521739130434783 7:0.021739130434782608 8:0.021739130434782608 9:0.043478260869565216 13:0.2564102564102564 18:0.7435897435897436 19:2.0 
2569.8198961649077 1:0.8518518518518519 2:0.07407407407407407 3:0.037037037037037035 5:0.037037037037037035 10:0.9375 14:0.0625 19:3.0 
1575.3801507882456 3:0.6363636363636364 4:0.2727272727272727 6:0.09090909090909091 11:0.10714285714285714 12:0.125 13:0.6607142857142857 17:0.017857142857142856 18:0.08928571428571429 19:3.0 
2569.8198961649077 1:0.7435897435897436 2:0.07692307692307693 4:0.07692307692307693 6:0.05128205128205128 7:0.05128205128205128 
472.9527327446412 1:0.75 2:0.025 6:0.1 7:0.125 10:0.9072164948453608 11:0.010309278350515464 12:0.010309278350515464 15:0.041237113402061855 16:0.020618556701030927 17:0.010309278350515464 19:5.0 
2488.30184426237 4:0.7441860465116279 7:0.023255813953488372 8:0.046511627906976744 9:0.18604651162790697 11:0.054455445544554455 12:0.10396039603960396 13:0.6287128712871287 16:0.019801980198019802 17:0.01485148514851485 18:0.1782178217821782 19:8.0 
331.75823876632853 1:0.6 3:0.2 6:0.2 10:0.28 11:0.06666666666666667 12:0.02666666666666667 13:0.38666666666666666 15:0.02666666666666667 17:0.04 18:0.17333333333333334 19:8.0 
1166.8359488434949 1:0.875 2:0.041666666666666664 3:0.041666666666666664 5:0.041666666666666664 10:0.993103448275862 15:0.006896551724137931 19:9.0 
2569.8198961649077 1:0.21428571428571427 2:0.35714285714285715 3:0.14285714285714285 4:0.14285714285714285 6:0.07142857142857142 8:0.07142857142857142 10:1.0 19:2.0 
890.6504706526765 1:0.5 2:0.3125 3:0.125 5:0.0625 10:0.45569620253164556 11:0.02531645569620253 12:0.17721518987341772 13:0.2911392405063291 14:0.012658227848101266 16:0.02531645569620253 18:0.012658227848101266 19:9.0 
2569.8198961649077 1:0.8653846153846154 2:0.07692307692307693 3:0.038461538461538464 5:0.019230769230769232 10:0.9896907216494846 11:0.010309278350515464 19:2.0 
2569.8198961649077 1:0.1111111111111111 2:0.3333333333333333 3:0.4444444444444444 4:0.05555555555555555 7:0.05555555555555555 10:0.5689655172413793 12:0.05172413793103448 13:0.2413793103448276 15:0.034482758620689655 16:0.017241379310344827 18:0.08620689655172414 19:7.0 
2569.8198961649077 4:0.037037037037037035 7:0.1111111111111111 9:0.8518518518518519 10:0.1875 11:0.125 12:0.125 13:0.375 18:0.1875 19:3.0 
75.39449576560101 1:0.3333333333333333 2:0.3333333333333333 3:0.16666666666666666 7:0.08333333333333333 8:0.08333333333333333 10:0.532258064516129 11:0.016129032258064516 12:0.04838709677419355 13:0.24193548387096775 15:0.08064516129032258 16:0.03225806451612903 17:0.03225806451612903 18:0.016129032258064516 19:9.0 
584.6473981274866 1:0.75 2:0.08333333333333333 6:0.16666666666666666 10:0.7037037037037037 12:0.1111111111111111 13:0.14814814814814814 16:0.037037037037037035 19:4.0 
162.46817207216245 1:0.25 4:0.25 5:0.25 9:0.25 10:0.23809523809523808 14:0.047619047619047616 15:0.09523809523809523 18:0.6190476190476191 19:4.0 
2569.8198961649077 1:0.7037037037037037 4:0.07407407407407407 6:0.037037037037037035 7:0.037037037037037035 8:0.14814814814814814 10:1.0 19:3.0 
395.79780844202645 1:0.2 2:0.4 3:0.2 4:0.1 5:0.1 10:0.5119047619047619 11:0.08333333333333333 12:0.047619047619047616 13:0.1488095238095238 14:0.011904761904761904 15:0.06547619047619048 16:0.017857142857142856 17:0.041666666666666664 18:0.07142857142857142 19:7.0 
2569.8198961649077 1:0.8 5:0.2 10:0.7972972972972973 11:0.12162162162162163 12:0.04054054054054054 13:0.04054054054054054 19:6.0 
2157.256078041862 1:0.8 2:0.1 6:0.1 10:0.3181818181818182 12:0.18181818181818182 13:0.3181818181818182 18:0.18181818181818182 19:2.0 
2299.3686208016497 1:0.9 4:0.025 5:0.025 6:0.05 10:0.8969072164948454 13:0.010309278350515464 14:0.061855670103092786 15:0.010309278350515464 16:0.010309278350515464 18:0.010309278350515464 19:5.0 
2569.8198961649077 1:0.625 2:0.25 7:0.125 10:0.5961538461538461 11:0.07692307692307693 12:0.07692307692307693 13:0.21153846153846154 17:0.019230769230769232 18:0.019230769230769232 19:8.0 
1253.6359614261257 4:0.8666666666666667 7:0.06666666666666667 9:0.06666666666666667 
419.74032102195764 1:0.08333333333333333 2:0.16666666666666666 3:0.16666666666666666 4:0.4166666666666667 6:0.16666666666666666 10:0.5436893203883495 12:0.019417475728155338 13:0.07766990291262135 15:0.18446601941747573 16:0.05825242718446602 17:0.038834951456310676 18:0.07766990291262135 19:6.0 
647.0556558334945 1:0.4166666666666667 2:0.20833333333333334 3:0.16666666666666666 4:0.16666666666666666 6:0.041666666666666664 10:0.22727272727272727 11:0.18181818181818182 12:0.13636363636363635 13:0.18181818181818182 14:0.045454545454545456 18:0.22727272727272727 19:4.0 
2569.8198961649077 1:0.07017543859649122 2:0.24561403508771928 3:0.3508771929824561 4:0.3157894736842105 7:0.017543859649122806 10:0.46938775510204084 12:0.02040816326530612 13:0.47959183673469385 17:0.01020408163265306 18:0.02040816326530612 19:2.0 
6.133587938751851 5:1.0 10:1.0 19:1.0 
1166.3151367897503 1:0.6875 2:0.125 6:0.125 7:0.0625 10:0.5492957746478874 11:0.04225352112676056 12:0.07042253521126761 13:0.28169014084507044 15:0.014084507042253521 18:0.04225352112676056 19:6.0 
993.0627151063517 1:0.45454545454545453 2:0.13636363636363635 3:0.2727272727272727 4:0.09090909090909091 6:0.045454545454545456 10:0.6521739130434783 11:0.13043478260869565 12:0.05217391304347826 13:0.11304347826086956 14:0.043478260869565216 15:0.008695652173913044 19:7.0 
1507.3457062849288 4:0.23529411764705882 7:0.058823529411764705 8:0.17647058823529413 9:0.5294117647058824 11:0.08771929824561403 12:0.017543859649122806 13:0.3333333333333333 17:0.10526315789473684 18:0.45614035087719296 19:4.0 
2569.8198961649077 1:0.9272727272727272 2:0.03636363636363636 3:0.01818181818181818 6:0.01818181818181818 10:0.8866666666666667 11:0.05333333333333334 12:0.05333333333333334 15:0.006666666666666667 19:7.0 
431.5628960911311 4:0.8571428571428571 6:0.14285714285714285 10:0.4583333333333333 11:0.08333333333333333 12:0.041666666666666664 13:0.08333333333333333 16:0.041666666666666664 17:0.125 18:0.16666666666666666 19:5.0 
1024.3211478265707 1:0.6666666666666666 2:0.16666666666666666 3:0.08333333333333333 7:0.08333333333333333 10:0.5645161290322581 11:0.14516129032258066 12:0.16129032258064516 13:0.0967741935483871 14:0.03225806451612903 19:9.0 
477.5927002685029 6:0.058823529411764705 7:0.058823529411764705 8:0.47058823529411764 9:0.4117647058823529 10:1.0 19:1.0 
51.3073716226279 1:0.75 2:0.125 3:0.03125 4:0.03125 5:0.0625 10:1.0 19:3.0 
1453.839322198029 3:0.09090909090909091 7:0.09090909090909091 8:0.09090909090909091 9:0.7272727272727273 10:0.12727272727272726 11:0.07272727272727272 12:0.03636363636363636 13:0.2 15:0.01818181818181818 16:0.03636363636363636 17:0.03636363636363636 18:0.4727272727272727 19:6.0 
714.84947626167 2:0.012987012987012988 3:0.012987012987012988 4:0.3116883116883117 6:0.025974025974025976 7:0.012987012987012988 9:0.6233766233766234 10:0.2214765100671141 11:0.09395973154362416 12:0.06711409395973154 13:0.28859060402684567 14:0.006711409395973154 15:0.026845637583892617 16:0.013422818791946308 17:0.053691275167785234 18:0.22818791946308725 19:4.0 
571.1995502837523 2:0.2222222222222222 3:0.1111111111111111 4:0.4444444444444444 6:0.1111111111111111 8:0.1111111111111111 10:0.17391304347826086 11:0.043478260869565216 13:0.34782608695652173 17:0.21739130434782608 18:0.21739130434782608 19:6.0 
14.392413889692493 1:0.7857142857142857 2:0.07142857142857142 6:0.14285714285714285 10:0.8611111111111112 11:0.018518518518518517 12:0.018518518518518517 13:0.037037037037037035 14:0.027777777777777776 15:0.009259259259259259 16:0.027777777777777776 19:9.0 
293.9651594856415 1:0.3333333333333333 6:0.6666666666666666 10:0.3076923076923077 13:0.23076923076923078 15:0.38461538461538464 16:0.07692307692307693 19:4.0 
84.58857994391876 5:1.0 15:1.0 19:1.0 
284.70810632007806 1:0.6666666666666666 2:0.25 6:0.08333333333333333 10:0.8627450980392157 11:0.0196078431372549 12:0.0196078431372549 13:0.0196078431372549 14:0.0392156862745098 15:0.0196078431372549 17:0.0196078431372549 19:7.0 
1543.1526003196157 1:0.29411764705882354 3:0.23529411764705882 4:0.35294117647058826 6:0.058823529411764705 9:0.058823529411764705 10:1.0 19:1.0 
88.47026775022367 6:0.5 7:0.5 10:0.5384615384615384 12:0.07692307692307693 13:0.3076923076923077 15:0.07692307692307693 19:3.0 
994.3644190178067 1:0.25 2:0.375 3:0.25 4:0.0625 6:0.0625 10:0.4177215189873418 11:0.0379746835443038 12:0.02531645569620253 13:0.4430379746835443 14:0.012658227848101266 16:0.02531645569620253 18:0.0379746835443038 19:9.0 
544.4872331385934 7:1.0 10:0.25 11:0.0625 13:0.125 15:0.125 16:0.0625 17:0.375 19:4.0 
2569.8198961649077 1:0.14285714285714285 4:0.14285714285714285 6:0.2857142857142857 7:0.2857142857142857 8:0.14285714285714285 10:0.6666666666666666 13:0.041666666666666664 15:0.041666666666666664 16:0.08333333333333333 17:0.16666666666666666 19:5.0 
11.545065527260334 6:0.6666666666666666 8:0.3333333333333333 10:0.2804878048780488 11:0.024390243902439025 12:0.06097560975609756 13:0.21951219512195122 15:0.036585365853658534 16:0.06097560975609756 17:0.036585365853658534 18:0.2804878048780488 19:9.0 
153.2138066663551 2:0.07692307692307693 4:0.8461538461538461 6:0.07692307692307693 10:0.3333333333333333 11:0.16666666666666666 12:0.16666666666666666 13:0.3333333333333333 19:4.0 
24.27830917880483 1:0.08333333333333333 3:0.25 4:0.4166666666666667 6:0.08333333333333333 8:0.16666666666666666 10:0.43137254901960786 11:0.0196078431372549 12:0.0196078431372549 13:0.3333333333333333 15:0.11764705882352941 16:0.058823529411764705 17:0.0196078431372549 19:7.0 
1425.6279866764166 4:0.6363636363636364 7:0.09090909090909091 8:0.2727272727272727 12:0.058823529411764705 13:0.5588235294117647 16:0.058823529411764705 17:0.029411764705882353 18:0.29411764705882354 19:3.0 
7.719088653194869 1:0.16666666666666666 2:0.3333333333333333 3:0.16666666666666666 6:0.16666666666666666 8:0.16666666666666666 10:0.6774193548387096 13:0.16129032258064516 15:0.06451612903225806 16:0.06451612903225806 18:0.03225806451612903 19:3.0 
551.5280769676403 4:0.2 6:0.2 8:0.6 10:0.2 13:0.02666666666666667 15:0.06666666666666667 16:0.013333333333333334 17:0.06666666666666667 18:0.6266666666666667 19:8.0 
103.95408011014673 3:0.029411764705882353 4:0.47058823529411764 6:0.058823529411764705 8:0.029411764705882353 9:0.4117647058823529 10:0.12962962962962962 11:0.05092592592592592 12:0.06944444444444445 13:0.26851851851851855 15:0.009259259259259259 18:0.4722222222222222 19:5.0 
2569.8198961649077 1:0.5625 2:0.28125 3:0.125 7:0.03125 10:0.4803921568627451 11:0.10784313725490197 12:0.10784313725490197 13:0.19607843137254902 15:0.049019607843137254 16:0.049019607843137254 17:0.00980392156862745 19:7.0 
1937.7029120438576 4:0.3333333333333333 7:0.1111111111111111 8:0.5555555555555556 13:0.2653061224489796 15:0.02040816326530612 16:0.08163265306122448 17:0.061224489795918366 18:0.5714285714285714 19:5.0 
800.3069007784736 3:0.8 6:0.2 10:0.5 11:0.09259259259259259 12:0.12962962962962962 13:0.2777777777777778 19:6.0 
191.0899944465123 1:0.375 3:0.0625 4:0.40625 7:0.03125 8:0.0625 9:0.0625 10:0.3103448275862069 11:0.10344827586206896 12:0.034482758620689655 13:0.2413793103448276 15:0.13793103448275862 18:0.1724137931034483 19:6.0 
305.6210952219536 1:0.5 2:0.1875 3:0.0625 4:0.1875 5:0.0625 10:0.5517241379310345 11:0.06896551724137931 13:0.20689655172413793 14:0.13793103448275862 18:0.034482758620689655 19:6.0 
220.74488320663983 1:0.25 3:0.5 5:0.25 10:0.23809523809523808 14:0.047619047619047616 15:0.09523809523809523 18:0.6190476190476191 19:4.0 
2569.8198961649077 1:0.23529411764705882 2:0.29411764705882354 3:0.11764705882352941 4:0.29411764705882354 6:0.058823529411764705 10:0.65625 11:0.09375 13:0.1875 15:0.03125 17:0.03125 19:4.0 
1613.5188343639356 5:1.0 10:0.5 11:0.08333333333333333 12:0.08333333333333333 14:0.3333333333333333 19:2.0 
531.0923070947073 2:0.25 3:0.4166666666666667 4:0.3055555555555556 5:0.027777777777777776 10:0.6623376623376623 11:0.11688311688311688 12:0.05194805194805195 13:0.1038961038961039 14:0.06493506493506493 19:10.0 
359.71595591057905 2:0.0967741935483871 3:0.3548387096774194 4:0.4838709677419355 6:0.03225806451612903 7:0.03225806451612903 10:0.3069306930693069 11:0.21782178217821782 12:0.1485148514851485 13:0.297029702970297 16:0.009900990099009901 18:0.019801980198019802 19:6.0 
159.95706251521355 1:0.03125 4:0.46875 6:0.0625 8:0.03125 9:0.40625 10:0.2647058823529412 11:0.11764705882352941 12:0.09803921568627451 13:0.3333333333333333 15:0.00980392156862745 18:0.17647058823529413 19:7.0 
2396.415792413611 1:0.8909090909090909 2:0.03636363636363636 3:0.01818181818181818 4:0.01818181818181818 6:0.01818181818181818 7:0.01818181818181818 10:0.82 11:0.04666666666666667 12:0.013333333333333334 13:0.10666666666666667 17:0.013333333333333334 19:7.0 
117.99357860058926 2:0.5 6:0.5 10:0.5 11:0.07142857142857142 12:0.07142857142857142 13:0.21428571428571427 18:0.14285714285714285 19:4.0 
2378.5835695724004 1:0.16666666666666666 2:0.3333333333333333 3:0.3888888888888889 4:0.05555555555555555 6:0.05555555555555555 10:0.3142857142857143 11:0.05714285714285714 13:0.5714285714285714 15:0.02857142857142857 16:0.02857142857142857 19:4.0 
2569.8198961649077 4:0.2222222222222222 7:0.1111111111111111 8:0.1111111111111111 9:0.5555555555555556 10:0.08695652173913043 12:0.043478260869565216 13:0.043478260869565216 17:0.13043478260869565 18:0.6956521739130435 19:6.0 
132.34519354048456 4:0.8181818181818182 6:0.09090909090909091 8:0.09090909090909091 10:0.38461538461538464 11:0.046153846153846156 12:0.038461538461538464 13:0.19230769230769232 16:0.015384615384615385 18:0.3230769230769231 19:9.0 
766.7728950459144 1:0.6666666666666666 7:0.16666666666666666 8:0.16666666666666666 10:1.0 19:1.0 
1029.1971650172677 1:0.5 3:0.25 6:0.25 10:0.47368421052631576 11:0.13157894736842105 12:0.11842105263157894 13:0.18421052631578946 14:0.02631578947368421 15:0.02631578947368421 16:0.013157894736842105 18:0.02631578947368421 19:7.0 
1483.590012684216 1:0.16883116883116883 2:0.11688311688311688 3:0.09090909090909091 4:0.5194805194805194 5:0.012987012987012988 6:0.03896103896103896 8:0.012987012987012988 9:0.03896103896103896 10:0.5771812080536913 11:0.10738255033557047 12:0.04697986577181208 13:0.1610738255033557 15:0.03355704697986577 16:0.020134228187919462 17:0.04697986577181208 18:0.006711409395973154 19:4.0 
2569.8198961649077 1:0.45454545454545453 2:0.45454545454545453 5:0.09090909090909091 10:0.5769230769230769 11:0.05384615384615385 12:0.09230769230769231 13:0.24615384615384617 16:0.007692307692307693 18:0.023076923076923078 19:9.0 
2264.5226010315623 6:1.0 10:0.631578947368421 11:0.10526315789473684 13:0.10526315789473684 15:0.10526315789473684 17:0.05263157894736842 19:3.0 
617.0465473787539 2:0.09090909090909091 3:0.18181818181818182 4:0.6363636363636364 6:0.09090909090909091 11:0.07142857142857142 12:0.08928571428571429 13:0.7321428571428571 15:0.017857142857142856 16:0.017857142857142856 17:0.03571428571428571 18:0.03571428571428571 19:3.0 
2569.8198961649077 2:0.0625 3:0.09375 4:0.1875 6:0.03125 9:0.625 13:0.3448275862068966 15:0.034482758620689655 17:0.034482758620689655 18:0.5862068965517241 19:6.0 
2569.8198961649077 1:0.9 2:0.05 5:0.025 6:0.025 10:0.979381443298969 11:0.020618556701030927 19:5.0 
1207.8550584637762 6:0.125 7:0.125 8:0.25 9:0.5 10:0.6956521739130435 15:0.17391304347826086 17:0.13043478260869565 19:2.0 
706.2847364545713 2:0.058823529411764705 4:0.4117647058823529 6:0.058823529411764705 7:0.058823529411764705 8:0.29411764705882354 9:0.11764705882352941 10:0.08771929824561403 11:0.08771929824561403 12:0.12280701754385964 13:0.45614035087719296 15:0.03508771929824561 17:0.14035087719298245 18:0.07017543859649122 19:4.0 
507.403729541413 3:0.075 4:0.55 6:0.025 8:0.075 9:0.275 10:0.010309278350515464 11:0.15463917525773196 12:0.16494845360824742 13:0.4948453608247423 15:0.030927835051546393 16:0.010309278350515464 18:0.13402061855670103 19:5.0 
38.44507586270882 1:0.2682926829268293 2:0.0975609756097561 3:0.04878048780487805 4:0.44715447154471544 6:0.008130081300813009 9:0.13008130081300814 10:0.903448275862069 11:0.041379310344827586 12:0.04827586206896552 15:0.006896551724137931 19:14.0 
308.90198118781035 1:0.18699186991869918 2:0.0975609756097561 3:0.04878048780487805 4:0.42276422764227645 6:0.016260162601626018 9:0.22764227642276422 10:0.8482758620689655 11:0.06206896551724138 12:0.027586206896551724 13:0.041379310344827586 15:0.013793103448275862 17:0.006896551724137931 19:14.0 
589.1436523044184 1:0.625 2:0.3125 5:0.0625 10:0.45569620253164556 11:0.05063291139240506 12:0.189873417721519 13:0.24050632911392406 14:0.012658227848101266 16:0.02531645569620253 17:0.012658227848101266 18:0.012658227848101266 19:9.0 
2569.8198961649077 1:0.125 2:0.0625 3:0.0625 4:0.25 6:0.03125 9:0.46875 12:0.034482758620689655 13:0.6206896551724138 15:0.034482758620689655 18:0.3103448275862069 19:6.0 
1523.691919379149 1:0.36363636363636365 2:0.13636363636363635 3:0.09090909090909091 4:0.36363636363636365 6:0.045454545454545456 10:0.5652173913043478 11:0.06086956521739131 12:0.06086956521739131 13:0.17391304347826086 14:0.034782608695652174 15:0.08695652173913043 16:0.008695652173913044 17:0.008695652173913044 19:7.0 
275.94467330135666 1:0.125 6:0.375 7:0.375 8:0.125 10:0.7083333333333334 13:0.16666666666666666 15:0.041666666666666664 17:0.08333333333333333 19:3.0 
2.1220243644841514 1:0.23076923076923078 2:0.15384615384615385 3:0.15384615384615385 4:0.3076923076923077 6:0.07692307692307693 9:0.07692307692307693 10:0.6190476190476191 11:0.14285714285714285 12:0.047619047619047616 13:0.19047619047619047 19:6.0 
677.3620372499398 3:0.2727272727272727 4:0.6363636363636364 7:0.09090909090909091 10:0.10714285714285714 11:0.05357142857142857 12:0.17857142857142858 13:0.2857142857142857 15:0.07142857142857142 16:0.08928571428571429 17:0.07142857142857142 18:0.14285714285714285 19:3.0 
1066.7351630271028 1:0.8571428571428571 7:0.14285714285714285 12:0.13636363636363635 13:0.7727272727272727 18:0.09090909090909091 19:1.0 
663.5743420421783 1:0.16666666666666666 2:0.25 3:0.25 4:0.25 6:0.08333333333333333 10:0.6825396825396826 11:0.09523809523809523 12:0.031746031746031744 13:0.09523809523809523 14:0.047619047619047616 15:0.015873015873015872 16:0.015873015873015872 18:0.015873015873015872 19:6.0 
363.481444196733 1:0.2857142857142857 2:0.14285714285714285 4:0.42857142857142855 6:0.14285714285714285 10:0.46153846153846156 11:0.019230769230769232 13:0.23076923076923078 18:0.28846153846153844 19:6.0 
18.752578779375128 1:0.25 6:0.75 10:0.2857142857142857 11:0.09523809523809523 13:0.23809523809523808 18:0.38095238095238093 19:4.0 
2569.8198961649077 1:0.35 2:0.35 3:0.25 6:0.05 10:0.5675675675675675 11:0.10810810810810811 12:0.10810810810810811 13:0.20270270270270271 17:0.013513513513513514 19:6.0 
730.543246761931 3:0.05 7:0.1 8:0.05 9:0.8 10:0.00819672131147541 11:0.07377049180327869 12:0.12295081967213115 13:0.639344262295082 16:0.00819672131147541 17:0.03278688524590164 18:0.11475409836065574 19:5.0 
568.5991963471314 1:0.25 2:0.5 5:0.25 10:0.2878787878787879 11:0.10606060606060606 12:0.15151515151515152 13:0.3787878787878788 14:0.030303030303030304 17:0.015151515151515152 18:0.030303030303030304 19:6.0 
2569.8198961649077 2:0.07692307692307693 3:0.23076923076923078 4:0.6538461538461539 7:0.038461538461538464 10:0.373134328358209 11:0.11940298507462686 12:0.1044776119402985 13:0.22388059701492538 15:0.05970149253731343 17:0.014925373134328358 18:0.1044776119402985 19:4.0 
860.1641846936967 1:0.75 2:0.025 6:0.1 7:0.125 10:0.8969072164948454 11:0.010309278350515464 15:0.05154639175257732 16:0.030927835051546393 17:0.010309278350515464 19:5.0 
274.5426567786036 1:0.375 3:0.25 6:0.125 8:0.25 10:0.6511627906976745 12:0.023255813953488372 13:0.06976744186046512 15:0.06976744186046512 16:0.046511627906976744 17:0.13953488372093023 19:6.0 
2351.2672216115793 1:0.8888888888888888 5:0.1111111111111111 13:0.5 18:0.5 19:1.0 
727.7207420442681 3:0.025974025974025976 4:0.012987012987012988 7:0.025974025974025976 8:0.06493506493506493 9:0.8701298701298701 12:0.06040268456375839 13:0.2550335570469799 15:0.006711409395973154 16:0.03355704697986577 17:0.09395973154362416 18:0.5503355704697986 19:4.0 
363.68117957104687 3:0.1 4:0.5 7:0.1 9:0.3 10:0.06060606060606061 12:0.18181818181818182 13:0.3333333333333333 15:0.09090909090909091 16:0.030303030303030304 18:0.30303030303030304 19:3.0 
2569.8198961649077 1:0.9333333333333333 7:0.06666666666666667 10:0.9649122807017544 11:0.017543859649122806 15:0.017543859649122806 19:3.0 
912.4401048733722 3:0.06666666666666667 4:0.6 7:0.06666666666666667 8:0.26666666666666666 10:1.0 19:1.0 
1178.261800605353 3:0.20454545454545456 4:0.36363636363636365 7:0.045454545454545456 8:0.022727272727272728 9:0.36363636363636365 10:0.009478672985781991 11:0.052132701421800945 12:0.02843601895734597 13:0.2037914691943128 14:0.004739336492890996 15:0.023696682464454975 16:0.023696682464454975 17:0.08530805687203792 18:0.5687203791469194 19:4.0 
2569.8198961649077 2:0.043478260869565216 3:0.2391304347826087 4:0.45652173913043476 7:0.021739130434782608 8:0.021739130434782608 9:0.21739130434782608 10:0.03896103896103896 11:0.15584415584415584 12:0.18181818181818182 13:0.6233766233766234 19:2.0 
89.16324986862476 1:0.4 2:0.4 6:0.2 10:0.42424242424242425 11:0.09090909090909091 12:0.030303030303030304 13:0.09090909090909091 15:0.030303030303030304 17:0.15151515151515152 18:0.18181818181818182 19:8.0 
970.1276782249495 4:0.3 7:0.1 8:0.2 9:0.4 10:0.38461538461538464 11:0.038461538461538464 15:0.11538461538461539 16:0.07692307692307693 17:0.15384615384615385 18:0.23076923076923078 19:4.0 
1615.152770172216 2:0.1875 3:0.3125 4:0.4375 6:0.0625 10:0.3037974683544304 11:0.11392405063291139 12:0.0379746835443038 13:0.4050632911392405 16:0.02531645569620253 17:0.012658227848101266 18:0.10126582278481013 19:9.0 
1125.6462726245666 7:0.3333333333333333 8:0.6666666666666666 10:0.375 15:0.125 17:0.5 19:3.0 
417.11247777935256 1:0.375 3:0.25 4:0.25 7:0.125 10:0.5769230769230769 11:0.057692307692307696 12:0.019230769230769232 13:0.19230769230769232 15:0.057692307692307696 17:0.019230769230769232 18:0.07692307692307693 19:8.0 
29.301910522696144 1:0.5 5:0.3333333333333333 6:0.16666666666666666 10:0.25 11:0.125 12:0.25 14:0.25 15:0.125 19:3.0 
130.1226943650023 1:0.375 2:0.25 3:0.3125 6:0.0625 10:0.7323943661971831 11:0.08450704225352113 13:0.15492957746478872 18:0.028169014084507043 19:6.0 
142.86439852417362 1:0.7 2:0.025 3:0.075 6:0.075 7:0.1 8:0.025 10:0.845360824742268 12:0.030927835051546393 13:0.010309278350515464 15:0.061855670103092786 16:0.030927835051546393 17:0.020618556701030927 19:5.0 
304.06914033504484 7:1.0 10:0.09090909090909091 13:0.2727272727272727 16:0.09090909090909091 17:0.18181818181818182 18:0.36363636363636365 19:2.0 
118.17585598637157 4:0.4 6:0.06666666666666667 8:0.06666666666666667 9:0.4666666666666667 11:0.23529411764705882 12:0.23529411764705882 13:0.4117647058823529 15:0.058823529411764705 18:0.058823529411764705 19:3.0 
2491.2568766460186 1:0.5 6:0.5 10:0.6428571428571429 11:0.14285714285714285 13:0.07142857142857142 15:0.14285714285714285 19:6.0 
228.74707947303284 3:0.2 4:0.7333333333333333 7:0.06666666666666667 
2250.011343038866 1:0.7142857142857143 4:0.14285714285714285 5:0.14285714285714285 10:1.0 19:1.0 
